tree
version=v4
num_class=1
num_tree_per_iteration=1
label_index=0
max_feature_idx=2
objective=binary sigmoid:1
feature_names=Column_0 Column_1 Column_2
feature_infos=[0.025778127261473074:0.63940891919893605] [4.2999999999999998:4713.8000000000002] [0:5]
tree_sizes=494 558 557 558 559 561 560 559 460 460 461 563 560 461 462 462 462 566 567 463 566 567 464 563 565 566 565 564 561 558 561 554 564 463 565 566 555 463 559 564 663 460 459 667 564 565 562 458 462 565 562 565 461 668 564 458 461 565 565 569 567 565 565 561 461 462 462 461 568 463 461 566 564 567 463 570 567 462 565 568 562 568 567 564 670 570 774 571 566 463 569 562 461 462 571 566 565 671 464 565

Tree=0
num_leaves=4
num_cat=0
split_feature=0 0 0
split_gain=57.8571 3 0.857143
threshold=0.26808836021287291 0.37527717372148145 0.15811754317521196
decision_type=2 2 2
left_child=2 -2 -1
right_child=1 -3 -4
leaf_value=-0.1999999999999999 0.10000000000000003 0.19999999999999998 -0.14285714285714285
leaf_weight=5.2500000000000018 5.9999999999999982 6 5.25
leaf_count=21 24 24 21
internal_value=0 0.15 -0.171429
internal_weight=22.5 12 10.5
internal_count=90 48 42
is_linear=0
shrinkage=0.1


Tree=1
num_leaves=4
num_cat=0
split_feature=0 0 0
split_gain=47.2171 2.50365 0.72137
threshold=0.26808836021287291 0.37527717372148145 0.15811754317521196
decision_type=2 2 2
left_child=2 -2 -1
right_child=1 -3 -4
leaf_value=-0.18187308119005763 0.090233537490089111 0.18187308119005768 -0.12925289136679707
leaf_weight=5.1978480219841021 5.9850250482559186 5.9403977394104004 5.2233050465583801
leaf_count=21 24 24 21
internal_value=-1.23028e-06 0.135882 -0.155499
internal_weight=22.3466 11.9254 10.4212
internal_count=90 48 42
is_linear=0
shrinkage=0.1


Tree=2
num_leaves=4
num_cat=0
split_feature=0 0 0
split_gain=39.025 2.19368 0.645907
threshold=0.26808836021287291 0.37527717372148145 0.15811754317521196
decision_type=2 2 2
left_child=2 -2 -1
right_child=1 -3 -4
leaf_value=-0.16825816740612262 0.081769153644157419 0.16825816740612268 -0.11796987855008384
leaf_weight=5.0631594210863131 5.9460425376892072 5.7864679098129272 5.1540041863918304
leaf_count=21 24 24 21
internal_value=-5.09444e-06 0.124425 -0.14289
internal_weight=21.9497 11.7325 10.2172
internal_count=90 48 42
is_linear=0
shrinkage=0.1


Tree=3
num_leaves=4
num_cat=0
split_feature=0 0 0
split_gain=32.5557 1.98915 0.603765
threshold=0.26808836021287291 0.37527717372148145 0.15811754317521196
decision_type=2 2 2
left_child=2 -2 -1
right_child=1 -3 -4
leaf_value=-0.15768741416156909 0.074324155309873283 0.15768741416156914 -0.10835596873783314
leaf_weight=4.8719889074563998 5.8903759717941266 5.567987322807312 5.0552446246147156
leaf_count=21 24 24 21
internal_value=-1.02181e-05 0.114833 -0.132566
internal_weight=21.3856 11.4584 9.92723
internal_count=90 48 42
is_linear=0
shrinkage=0.1


Tree=4
num_leaves=4
num_cat=0
split_feature=0 1 0
split_gain=27.3476 1.90026 0.581356
threshold=0.26808836021287291 621.55000000000007 0.15811754317521196
decision_type=2 2 2
left_child=2 -2 -1
right_child=1 -3 -4
leaf_value=-0.14927178044610034 0.14324756904041491 0.060017030630396512 -0.099981942819677497
leaf_weight=4.6436783373355883 6.2287245690822584 4.9019593298435211 4.9369660913944244
leaf_count=21 27 21 21
internal_value=-1.57836e-05 0.106593 -0.123872
internal_weight=20.7113 11.1307 9.58064
internal_count=90 48 42
is_linear=0
shrinkage=0.1


Tree=5
num_leaves=4
num_cat=0
split_feature=0 0 0
split_gain=23.0555 1.95739 0.571149
threshold=0.26808836021287291 0.37527717372148145 0.15811754317521196
decision_type=2 2 2
left_child=2 -2 -1
right_child=1 -3 -4
leaf_value=-0.14243950394247964 0.058832769427970437 0.14411343774927918 -0.092554935826205276
leaf_weight=4.3926713615655917 5.7066755890846235 5.0936720967292786 4.8066812753677368
leaf_count=21 24 24 21
internal_value=-3.82946e-05 0.0990529 -0.116375
internal_weight=19.9997 10.8003 9.19935
internal_count=90 48 42
is_linear=0
shrinkage=0.1


Tree=6
num_leaves=4
num_cat=0
split_feature=0 0 0
split_gain=19.5401 1.84781 0.568611
threshold=0.26808836021287291 0.37527717372148145 0.15811754317521196
decision_type=2 2 2
left_child=2 -2 -1
right_child=1 -3 -4
leaf_value=-0.13680524356971122 0.053723388309141418 0.1381967221457997 -0.085869634076152501
leaf_weight=4.1297472864389437 5.6286665797233564 4.7958906590938568 4.6700453460216522
leaf_count=21 24 24 21
internal_value=-4.25897e-05 0.0925859 -0.109774
internal_weight=19.2243 10.4246 8.79979
internal_count=90 48 42
is_linear=0
shrinkage=0.1


Tree=7
num_leaves=4
num_cat=0
split_feature=0 1 0
split_gain=16.6078 1.81236 0.570814
threshold=0.26808836021287291 621.55000000000007 0.15811754317521196
decision_type=2 2 2
left_child=2 -2 -1
right_child=1 -3 -4
leaf_value=-0.13209932398403787 0.12528070158249646 0.039914508703771216 -0.079779140825396611
leaf_weight=3.8629047721624392 5.5071172267198545 4.5349111407995224 4.5312815308570862
leaf_count=21 27 21 21
internal_value=-4.58118e-05 0.0867299 -0.103856
internal_weight=18.4362 10.042 8.39419
internal_count=90 48 42
is_linear=0
shrinkage=0.1


Tree=8
num_leaves=3
num_cat=0
split_feature=0 0
split_gain=14.6377 3.46468
threshold=0.34448607803995673 0.20334053302328034
decision_type=2 2
left_child=1 -1
right_child=-2 -3
leaf_value=-0.13183414413604841 0.12201305861393114 -0.020225933616469866
leaf_weight=4.8533000349998492 6.3146527260541907 6.5155370980501175
leaf_count=27 33 30
internal_value=-6.46583e-05 -0.0678709
internal_weight=17.6835 11.3688
internal_count=90 57
is_linear=0
shrinkage=0.1


Tree=9
num_leaves=3
num_cat=0
split_feature=0 0
split_gain=12.5281 3.21158
threshold=0.34448607803995673 0.20334053302328034
decision_type=2 2
left_child=1 -1
right_child=-2 -3
leaf_value=-0.12795069218580432 0.11683721093906899 -0.018217291638986003
leaf_weight=4.5177923440933245 5.9536921977996817 6.5108027756214142
leaf_count=27 33 30
internal_value=-6.18915e-05 -0.0631689
internal_weight=16.9823 11.0286
internal_count=90 57
is_linear=0
shrinkage=0.1


Tree=10
num_leaves=3
num_cat=0
split_feature=0 0
split_gain=10.7455 2.98549
threshold=0.34448607803995673 0.20334053302328034
decision_type=2 2
left_child=1 -1
right_child=-2 -3
leaf_value=-0.12463273474846087 0.11217322284654259 -0.016408739757302775
leaf_weight=4.1910438090562838 5.5995107591152182 6.5058428198099136
leaf_count=27 33 30
internal_value=-6.00602e-05 -0.0588109
internal_weight=16.2964 10.6969
internal_count=90 57
is_linear=0
shrinkage=0.1


Tree=11
num_leaves=4
num_cat=0
split_feature=0 0 0
split_gain=9.38027 1.99521 1.07913
threshold=0.26808836021287291 0.34448607803995673 0.20334053302328034
decision_type=2 2 2
left_child=2 -2 -1
right_child=1 -3 -4
leaf_value=-0.12177774221347271 0.0098932178006766926 0.10790879027152683 -0.042394801604147374
leaf_weight=3.8765144795179376 3.4332751631736738 5.2565382272005081 3.0675365030765533
leaf_count=27 15 33 15
internal_value=-5.93559e-05 0.0691836 -0.0867103
internal_weight=15.6339 8.68981 6.94405
internal_count=90 48 42
is_linear=0
shrinkage=0.1


Tree=12
num_leaves=4
num_cat=0
split_feature=0 1 0
split_gain=8.01848 1.96289 1.05684
threshold=0.26808836021287291 621.55000000000007 0.20334053302328034
decision_type=2 2 2
left_child=2 -2 -1
right_child=1 -3 -4
leaf_value=-0.1193062391251957 0.11054692942733663 0.013395622239366474 -0.038905208080204097
leaf_weight=3.5765229016542444 4.4362118989229185 3.9150799363851547 3.0114559829235077
leaf_count=27 27 21 15
internal_value=-6.74921e-05 0.0650025 -0.0825538
internal_weight=14.9393 8.35129 6.58798
internal_count=90 48 42
is_linear=0
shrinkage=0.1


Tree=13
num_leaves=3
num_cat=0
split_feature=0 0
split_gain=7.32135 2.08365
threshold=0.34448607803995673 0.23052443442071874
decision_type=2 2
left_child=1 -1
right_child=-2 -3
leaf_value=-0.10007664451858617 0.10185785609362352 -0.006692149499864429
leaf_weight=4.4761215224862081 4.7219855189323434 5.1250241100788116
leaf_count=33 33 24
internal_value=-8.94587e-05 -0.0502287
internal_weight=14.3231 9.60115
internal_count=90 57
is_linear=0
shrinkage=0.1


Tree=14
num_leaves=3
num_cat=0
split_feature=0 0
split_gain=6.30301 1.88882
threshold=0.34448607803995673 0.23052443442071874
decision_type=2 2
left_child=1 -1
right_child=-2 -3
leaf_value=-0.096521705245766143 0.09825019109231975 -0.0060208766988808868
leaf_weight=4.191688656806944 4.4214695766568193 5.1266800910234451
leaf_count=33 33 24
internal_value=-7.61155e-05 -0.0467309
internal_weight=13.7398 9.31837
internal_count=90 57
is_linear=0
shrinkage=0.1


Tree=15
num_leaves=3
num_cat=0
split_feature=0 0
split_gain=5.42759 1.70949
threshold=0.34448607803995673 0.23052443442071874
decision_type=2 2
left_child=1 -1
right_child=-2 -3
leaf_value=-0.093104502928838262 0.094803843048760605 -0.0054171913364173593
leaf_weight=3.9248819500207883 4.1387006118893632 5.1281135976314545
leaf_count=33 33 24
internal_value=-6.36334e-05 -0.0434336
internal_weight=13.1917 9.053
internal_count=90 57
is_linear=0
shrinkage=0.1


Tree=16
num_leaves=3
num_cat=0
split_feature=0 0
split_gain=4.67363 1.54406
threshold=0.34448607803995673 0.23052443442071874
decision_type=2 2
left_child=1 -1
right_child=-2 -3
leaf_value=-0.089791508949200335 0.091479937209210993 -0.0048742279850092262
leaf_weight=3.6757185682654363 3.8739637061953553 5.129357323050499
leaf_count=33 33 24
internal_value=-5.20558e-05 -0.0403233
internal_weight=12.679 8.80508
internal_count=90 57
is_linear=0
shrinkage=0.1


Tree=17
num_leaves=4
num_cat=0
split_feature=2 0 1
split_gain=4.3988 3.50862 0.446385
threshold=1.0000000180025095e-35 0.33661552309890425 501.50000000000006
decision_type=2 2 2
left_child=-1 2 -2
right_child=1 -3 -4
leaf_value=0.10999911956685825 -0.098727102298975189 0.055704101935295493 -0.045467026301736602
leaf_weight=2.7992784902453431 3.5272466689348203 3.0337673425674438 2.8412202000617981
leaf_count=19 29 25 17
internal_value=-4.14065e-05 -0.0328032 -0.0749657
internal_weight=12.2015 9.40223 6.36847
internal_count=90 71 46
is_linear=0
shrinkage=0.1


Tree=18
num_leaves=4
num_cat=0
split_feature=2 0 1
split_gain=3.69158 2.95033 0.564118
threshold=1.0000000180025095e-35 0.33661552309890425 531.75000000000011
decision_type=2 2 2
left_child=-1 2 -2
right_child=1 -3 -4
leaf_value=0.10230825297253739 -0.095817680167941052 0.052146930444935992 -0.034621738408129668
leaf_weight=2.7133544832468042 3.5480200946331006 2.9225975871086121 2.6177239641547203
leaf_count=19 30 25 16
internal_value=-5.00063e-05 -0.0306094 -0.0698364
internal_weight=11.8017 9.08834 6.16574
internal_count=90 71 46
is_linear=0
shrinkage=0.1


Tree=19
num_leaves=3
num_cat=0
split_feature=0 0
split_gain=3.19103 1.20829
threshold=0.34448607803995673 0.23052443442071874
decision_type=2 2
left_child=1 -1
right_child=-2 -3
leaf_value=-0.082420698099224157 0.083338586581443899 -0.0032280173430916091
leaf_weight=3.1214746385812742 3.2735810428857812 5.0333267003297806
leaf_count=33 33 24
internal_value=-6.17907e-05 -0.0335412
internal_weight=11.4284 8.1548
internal_count=90 57
is_linear=0
shrinkage=0.1


Tree=20
num_leaves=4
num_cat=0
split_feature=2 0 1
split_gain=3.07376 2.10073 0.528202
threshold=1.0000000180025095e-35 0.33661552309890425 531.75000000000011
decision_type=2 2 2
left_child=-1 2 -2
right_child=1 -3 -4
leaf_value=0.095894519504399978 -0.089520778465928486 0.044232341358161203 -0.028679871283891906
leaf_weight=2.563419684767724 3.2610986754298192 2.6747152209281921 2.5371012762188911
leaf_count=19 30 25 16
internal_value=-5.19207e-05 -0.0290798 -0.0628988
internal_weight=11.0363 8.47292 5.7982
internal_count=90 71 46
is_linear=0
shrinkage=0.1


Tree=21
num_leaves=4
num_cat=0
split_feature=2 0 1
split_gain=2.57104 1.75877 0.477916
threshold=1.0000000180025095e-35 0.33661552309890425 531.75000000000011
decision_type=2 2 2
left_child=-1 2 -2
right_child=1 -3 -4
leaf_value=0.088930244585900847 -0.084586658388028757 0.041138689813730839 -0.02600514136548809
leaf_weight=2.4916241690516481 3.1140151023864728 2.5926922857761383 2.5192301645874977
leaf_count=19 30 25 16
internal_value=-6.31074e-05 -0.0270191 -0.0583886
internal_weight=10.7176 8.22594 5.63325
internal_count=90 71 46
is_linear=0
shrinkage=0.1


Tree=22
num_leaves=3
num_cat=0
split_feature=0 0
split_gain=2.22643 0.956945
threshold=0.34448607803995673 0.23052443442071874
decision_type=2 2
left_child=1 -1
right_child=-2 -3
leaf_value=-0.076011902141784854 0.075979062226744956 -0.0018919061565468008
leaf_weight=2.6976990252733231 2.8113496452569962 4.9162133187055588
leaf_count=33 33 24
internal_value=-7.2376e-05 -0.0281535
internal_weight=10.4253 7.61391
internal_count=90 57
is_linear=0
shrinkage=0.1


Tree=23
num_leaves=4
num_cat=0
split_feature=2 1 0
split_gain=2.14187 1.64574 2.8503
threshold=1.0000000180025095e-35 692.95000000000016 0.2996288211552614
decision_type=2 2 2
left_child=-1 2 -2
right_child=1 -3 -4
leaf_value=0.083129916026274453 -0.12584793780443046 0.043410683911908873 0.020409876650016125
leaf_weight=2.3690561875700951 2.8062629476189613 2.3911259546875954 2.5371208414435387
leaf_count=19 32 19 20
internal_value=-6.33664e-05 -0.0255452 -0.0564025
internal_weight=10.1036 7.73451 5.34338
internal_count=90 71 52
is_linear=0
shrinkage=0.1


Tree=24
num_leaves=4
num_cat=0
split_feature=2 2 0
split_gain=1.79391 3.55916 4.02881
threshold=1.0000000180025095e-35 3.5000000000000004 0.26808836021287291
decision_type=2 2 2
left_child=-1 -2 -3
right_child=1 2 -4
leaf_value=0.076827622892519057 -0.13492838522450087 -0.074111278993786514 0.099403965969744823
leaf_weight=2.3102420158684254 2.0849851667881012 2.4944737255573273 2.8866726383566856
leaf_count=19 15 31 25
internal_value=-0.000179536 -0.0240078 0.0189696
internal_weight=9.77637 7.46613 5.38115
internal_count=90 71 56
is_linear=0
shrinkage=0.1


Tree=25
num_leaves=4
num_cat=0
split_feature=0 0 1
split_gain=1.5779 0.276835 0.158962
threshold=0.34448607803995673 0.26808836021287291 412.20000000000005
decision_type=2 2 2
left_child=1 2 -1
right_child=-2 -3 -4
leaf_value=-0.063400357805221602 0.069144317198703731 -0.002584460801411408 -0.022469397868315789
leaf_weight=1.8603024482727053 2.4389147758483887 3.1965536773204803 1.9365519098937509
leaf_count=26 33 15 16
internal_value=-0.000114634 -0.0242683 -0.0425239
internal_weight=9.43232 6.99341 3.79685
internal_count=90 57 42
is_linear=0
shrinkage=0.1


Tree=26
num_leaves=4
num_cat=0
split_feature=2 2 0
split_gain=1.51724 2.94788 3.26091
threshold=1.0000000180025095e-35 3.5000000000000004 0.26808836021287291
decision_type=2 2 2
left_child=-1 -2 -3
right_child=1 2 -4
leaf_value=0.072087541105356742 -0.12384361141149594 -0.068914738383581073 0.094242320334995744
leaf_weight=2.2114793844521046 2.0469149239361286 2.2753621228039265 2.6535485908389091
leaf_count=19 15 31 25
internal_value=-8.77988e-05 -0.0229689 0.0189232
internal_weight=9.18731 6.97583 4.92891
internal_count=90 71 56
is_linear=0
shrinkage=0.1


Tree=27
num_leaves=4
num_cat=0
split_feature=2 2 0
split_gain=1.26212 2.38422 2.80534
threshold=1.0000000180025095e-35 3.5000000000000004 0.26808836021287291
decision_type=2 2 2
left_child=-1 -2 -3
right_child=1 2 -4
leaf_value=0.066386206500013964 -0.11137497554781702 -0.065668517998333995 0.089827016027595227
leaf_weight=2.1638545133173466 2.0483649186789989 2.1553929299116135 2.512978158891201
leaf_count=19 15 31 25
internal_value=-3.31769e-05 -0.0214308 0.0180345
internal_weight=8.88059 6.71674 4.66837
internal_count=90 71 56
is_linear=0
shrinkage=0.1


Tree=28
num_leaves=4
num_cat=0
split_feature=1 0 1
split_gain=1.32829 2.03849 0.776826
threshold=928.50000000000011 0.23052443442071874 442.00000000000006
decision_type=2 2 2
left_child=1 -1 -3
right_child=-2 2 -4
leaf_value=-0.11197538223149189 0.068139527943339107 0.054176888478291232 -0.027857712087315203
leaf_weight=1.8304558061063287 2.1470232680439949 2.2846159189939499 2.3332128897309303
leaf_count=31 17 21 21
internal_value=1.23989e-05 -0.0226712 0.0127279
internal_weight=8.59531 6.44828 4.61783
internal_count=90 73 42
is_linear=0
shrinkage=0.1


Tree=29
num_leaves=4
num_cat=0
split_feature=1 1 0
split_gain=1.10064 1.75807 3.84368
threshold=928.50000000000011 612.45000000000016 0.2996288211552614
decision_type=2 2 2
left_child=1 2 -1
right_child=-2 -3 -4
leaf_value=-0.063171252722669588 0.062387766286582796 -0.10742990127029906 0.12403139904137535
leaf_weight=2.7569073848426342 2.1123610660433769 1.7138919122517107 1.8214065060019491
leaf_count=36 17 16 21
internal_value=-6.94202e-05 -0.021037 0.0113042
internal_weight=8.40457 6.29221 4.57831
internal_count=90 73 57
is_linear=0
shrinkage=0.1


Tree=30
num_leaves=4
num_cat=0
split_feature=2 2 0
split_gain=1.03331 2.12201 1.92852
threshold=1.0000000180025095e-35 3.5000000000000004 0.26808836021287291
decision_type=2 2 2
left_child=-1 -2 -3
right_child=1 2 -4
leaf_value=0.061701745303533596 -0.1043588033428067 -0.055808808438525842 0.082024898837203972
leaf_weight=2.0395390540361404 2.0212634652853012 1.8268504515290258 2.2845366820693016
leaf_count=19 15 31 25
internal_value=4.17301e-05 -0.0204646 0.02078
internal_weight=8.17219 6.13265 4.11139
internal_count=90 71 56
is_linear=0
shrinkage=0.1


Tree=31
num_leaves=4
num_cat=0
split_feature=1 1 0
split_gain=0.97783 1.93085 3.27311
threshold=928.50000000000011 621.55000000000007 0.2996288211552614
decision_type=2 2 2
left_child=1 2 -1
right_child=-2 -3 -4
leaf_value=-0.05791412194454082 0.059579910225154332 -0.11650345941686868 0.11911431937419728
leaf_weight=2.5858469624072313 2.0490870550274849 1.548084571957588 1.7520799972116945
leaf_count=36 17 13 24
internal_value=8.41798e-05 -0.020628 0.0135873
internal_weight=7.9351 5.88601 4.33793
internal_count=90 73 60
is_linear=0
shrinkage=0.1


Tree=32
num_leaves=4
num_cat=0
split_feature=2 1 0
split_gain=0.86658 1.93788 1.30481
threshold=1.0000000180025095e-35 826.85000000000002 0.2996288211552614
decision_type=2 2 2
left_child=-1 2 -2
right_child=1 -3 -4
leaf_value=0.057576869802858234 -0.11752662292757039 0.069175421807143964 -0.0033846102750448056
leaf_weight=1.9612344354391096 1.9043170716613529 1.7269205674529073 2.1125399395823479
leaf_count=19 34 16 21
internal_value=0.00018483 -0.0194119 -0.0574972
internal_weight=7.70501 5.74378 4.01686
internal_count=90 71 55
is_linear=0
shrinkage=0.1


Tree=33
num_leaves=3
num_cat=0
split_feature=0 0
split_gain=0.750509 0.632889
threshold=0.34448607803995673 0.24143184733272935
decision_type=2 2
left_child=1 -1
right_child=-2 -3
leaf_value=0.026391391915834384 0.055738002894621344 -0.043129028454860364
leaf_weight=2.0544543154537678 1.8301019519567487 3.6113087683916092
leaf_count=36 33 21
internal_value=6.32213e-05 -0.0179203
internal_weight=7.49587 5.66576
internal_count=90 57
is_linear=0
shrinkage=0.1


Tree=34
num_leaves=4
num_cat=0
split_feature=2 2 0
split_gain=0.732546 1.83695 1.28483
threshold=1.0000000180025095e-35 3.5000000000000004 0.26808836021287291
decision_type=2 2 2
left_child=-1 -2 -3
right_child=1 2 -4
leaf_value=0.053060255965197659 -0.096877738623733833 -0.044676142282792333 0.075880062015464586
leaf_weight=1.9350388534367082 1.9393146932125089 1.5557142682373526 2.0475193038582802
leaf_count=19 15 31 25
internal_value=8.8239e-05 -0.0184056 0.0238293
internal_weight=7.47759 5.54255 3.60323
internal_count=90 71 56
is_linear=0
shrinkage=0.1


Tree=35
num_leaves=4
num_cat=0
split_feature=1 2 0
split_gain=0.715499 1.76761 1.27862
threshold=928.50000000000011 1.0000000180025095e-35 0.2996288211552614
decision_type=2 2 2
left_child=1 -1 -3
right_child=-2 2 -4
leaf_value=0.079518017637999733 0.051885063997756969 -0.1140981330061208 -0.00024924438275260812
leaf_weight=1.3607519567012785 1.9542844779789446 1.8244970347732308 2.1476614437997341
leaf_count=14 17 36 23
internal_value=0.000122883 -0.0188458 -0.0525425
internal_weight=7.28719 5.33291 3.97216
internal_count=90 73 59
is_linear=0
shrinkage=0.1


Tree=36
num_leaves=4
num_cat=0
split_feature=1 1 0
split_gain=0.593491 1.69993 2.45852
threshold=928.50000000000011 621.55000000000007 0.2996288211552614
decision_type=2 2 2
left_child=1 2 -1
right_child=-2 -3 -4
leaf_value=-0.048880550056761375 0.04727998880412515 -0.10951562374967257 0.11725131331906796
leaf_weight=2.2046482581645255 1.9314229041337965 1.4495499171316621 1.4946989081799982
leaf_count=36 17 13 24
internal_value=8.5138e-06 -0.0177237 0.018244
internal_weight=7.08032 5.1489 3.69935
internal_count=90 73 60
is_linear=0
shrinkage=0.1


Tree=37
num_leaves=3
num_cat=0
split_feature=0 0
split_gain=0.511291 0.747906
threshold=0.34448607803995673 0.24143184733272935
decision_type=2 2
left_child=1 -1
right_child=-2 -3
leaf_value=0.035229537364854166 0.049320948750654126 -0.043152081667053921
leaf_weight=1.9018732532858846 1.6169598139822481 3.3823436796665192
leaf_count=36 33 21
internal_value=0.000115478 -0.0149413
internal_weight=6.90118 5.28422
internal_count=90 57
is_linear=0
shrinkage=0.1


Tree=38
num_leaves=4
num_cat=0
split_feature=1 1 0
split_gain=0.497313 1.36565 2.18693
threshold=928.50000000000011 621.55000000000007 0.2996288211552614
decision_type=2 2 2
left_child=1 2 -1
right_child=-2 -3 -4
leaf_value=-0.04510429173906097 0.043518962670804566 -0.098012144531975723 0.11637444242335403
leaf_weight=2.1792961694300179 1.9104865510016678 1.4555676542222498 1.3633924275636671
leaf_count=36 17 13 24
internal_value=0.000122672 -0.0164647 0.0170403
internal_weight=6.90874 4.99826 3.54269
internal_count=90 73 60
is_linear=0
shrinkage=0.1


Tree=39
num_leaves=4
num_cat=0
split_feature=2 2 0
split_gain=0.49437 1.6063 0.723236
threshold=1.0000000180025095e-35 3.5000000000000004 0.26808836021287291
decision_type=2 2 2
left_child=-1 -2 -3
right_child=1 2 -4
leaf_value=0.044608590130218166 -0.090220087397282184 -0.029606364579516466 0.068776998313795981
leaf_weight=1.8282496146857736 1.839614078402519 1.2783093322068455 1.7984082475304601
leaf_count=19 15 31 25
internal_value=0.000211803 -0.0162982 0.0279008
internal_weight=6.74458 4.91633 3.07672
internal_count=90 71 56
is_linear=0
shrinkage=0.1


Tree=40
num_leaves=5
num_cat=0
split_feature=1 2 1 0
split_gain=0.463567 1.50832 1.09333 2.80186
threshold=928.50000000000011 1.0000000180025095e-35 621.55000000000007 0.2996288211552614
decision_type=2 2 2 2
left_child=1 -1 3 -3
right_child=-2 2 -4 -5
leaf_value=0.075085041584216403 0.042351613693590473 -0.11149848337310936 -0.12642366982627715 0.11581659797280802
leaf_weight=1.3042434677481649 1.8720867205411194 1.2003611568361527 1.237042164430022 0.98899392411112774
leaf_count=14 17 31 12 16
internal_value=0.000231286 -0.0164373 -0.0512748 -0.0088138
internal_weight=6.60273 4.73064 3.4264 2.18936
internal_count=90 73 59 47
is_linear=0
shrinkage=0.1


Tree=41
num_leaves=3
num_cat=0
split_feature=2 0
split_gain=0.450743 0.480932
threshold=3.5000000000000004 0.26808836021287291
decision_type=2 2
left_child=-1 -2
right_child=1 -3
leaf_value=-0.023375111086717013 -0.019884469249757994 0.064293988716477291
leaf_weight=3.5693390984088182 1.1420434769243004 1.6728845760226247
leaf_count=34 31 25
internal_value=0.00022145 0.030142
internal_weight=6.38427 2.81493
internal_count=90 56
is_linear=0
shrinkage=0.1


Tree=42
num_leaves=3
num_cat=0
split_feature=0 1
split_gain=0.464595 1.64698
threshold=0.24143184733272935 621.55000000000007
decision_type=2 2
left_child=-1 -2
right_child=1 -3
leaf_value=0.0436212930072453 0.057255965896106237 -0.065883085311550099
leaf_weight=1.7737380862236021 1.8072223402559755 2.7223324663937092
leaf_count=36 31 23
internal_value=0.000236598 -0.0167525
internal_weight=6.30329 4.52955
internal_count=90 54
is_linear=0
shrinkage=0.1


Tree=43
num_leaves=5
num_cat=0
split_feature=1 2 1 0
split_gain=0.51449 1.50515 0.630462 1.02845
threshold=692.95000000000016 1.0000000180025095e-35 531.75000000000011 0.28244633603526176
decision_type=2 2 2 2
left_child=1 -1 3 -3
right_child=-2 2 -4 -5
leaf_value=0.067923332053855326 0.037406820413869578 -0.10478109412178155 -0.12252900151357132 0.052921578463986832
leaf_weight=1.2828428167849777 2.351157920435071 0.81198673322796844 1.0858665723353622 0.84269225783646107
leaf_count=14 24 27 12 13
internal_value=0.000243139 -0.0214743 -0.0633211 -0.0244665
internal_weight=6.37455 4.02339 2.74055 1.65468
internal_count=90 66 52 40
is_linear=0
shrinkage=0.1


Tree=44
num_leaves=4
num_cat=0
split_feature=2 1 2
split_gain=0.433538 1.53915 0.203153
threshold=3.5000000000000004 652.10000000000014 4.7500000000000009
decision_type=2 2 2
left_child=-1 2 -2
right_child=1 -3 -4
leaf_value=-0.022663293800948826 0.0060774926841266333 0.13105118583699546 -0.062846073130540456
leaf_weight=3.5667126160115004 0.90662945061922096 0.97214964404702175 0.80946995131671429
leaf_count=34 24 14 18
internal_value=0.000192796 0.0305178 -0.0264332
internal_weight=6.25496 2.68825 1.7161
internal_count=90 56 42
is_linear=0
shrinkage=0.1


Tree=45
num_leaves=4
num_cat=0
split_feature=1 2 0
split_gain=0.390315 1.15404 0.837085
threshold=928.50000000000011 1.0000000180025095e-35 0.2996288211552614
decision_type=2 2 2
left_child=1 -1 -3
right_child=-2 2 -4
leaf_value=0.064030583109857958 0.038320618850089465 -0.11047632705965481 -0.0050223258734448436
leaf_weight=1.2705885041505096 1.877726389095187 1.2947619911283257 1.798100162297487
leaf_count=14 17 36 23
internal_value=0.000198835 -0.0162061 -0.0491684
internal_weight=6.24118 4.36345 3.09286
internal_count=90 73 59
is_linear=0
shrinkage=0.1


Tree=46
num_leaves=4
num_cat=0
split_feature=2 1 2
split_gain=0.460199 1.24398 0.178979
threshold=3.5000000000000004 652.10000000000014 4.7500000000000009
decision_type=2 2 2
left_child=-1 2 -2
right_child=1 -3 -4
leaf_value=-0.023395354612885104 0.011479095295279709 0.12489455424827951 -0.054487344654807271
leaf_weight=3.5234055202454329 0.86503260023891948 0.9270782247185706 0.78412668220698833
leaf_count=34 24 14 18
internal_value=9.18924e-05 0.0322144 -0.019886
internal_weight=6.09964 2.57624 1.64916
internal_count=90 56 42
is_linear=0
shrinkage=0.1


Tree=47
num_leaves=3
num_cat=0
split_feature=0 1
split_gain=0.404501 1.57153
threshold=0.24143184733272935 621.55000000000007
decision_type=2 2
left_child=-1 -2
right_child=1 -3
leaf_value=0.04067547235976092 0.058924563150906301 -0.064389221211310174
leaf_weight=1.7511259932070968 1.6951097361743448 2.6477672699838877
leaf_count=36 31 23
internal_value=0.000102364 -0.0162574
internal_weight=6.094 4.34288
internal_count=90 54
is_linear=0
shrinkage=0.1


Tree=48
num_leaves=3
num_cat=0
split_feature=0 0
split_gain=0.378934 0.691146
threshold=0.34448607803995673 0.24143184733272935
decision_type=2 2
left_child=1 -1
right_child=-2 -3
leaf_value=0.035663273768119279 0.04605005292659789 -0.042975954983990067
leaf_weight=1.7950131986290214 1.3902444597333667 2.9615117870271206
leaf_count=36 33 21
internal_value=0.000124143 -0.0132992
internal_weight=6.14677 4.75652
internal_count=90 57
is_linear=0
shrinkage=0.1


Tree=49
num_leaves=4
num_cat=0
split_feature=1 2 0
split_gain=0.385844 0.975683 0.808939
threshold=928.50000000000011 1.0000000180025095e-35 0.2996288211552614
decision_type=2 2 2
left_child=1 -1 -3
right_child=-2 2 -4
leaf_value=0.056844868393271866 0.03746576348717625 -0.10956556864199916 -0.0038963629019373087
leaf_weight=1.2672883812338112 1.9092037621885536 1.241472006775439 1.739646917209029
leaf_count=14 17 36 23
internal_value=0.000124681 -0.0166561 -0.0479018
internal_weight=6.15761 4.24841 2.98112
internal_count=90 73 59
is_linear=0
shrinkage=0.1


Tree=50
num_leaves=4
num_cat=0
split_feature=2 1 2
split_gain=0.422578 1.02306 0.138796
threshold=3.5000000000000004 652.10000000000014 4.7500000000000009
decision_type=2 2 2
left_child=-1 2 -2
right_child=1 -3 -4
leaf_value=-0.022369667201148902 0.011120044928427787 0.11576527225090592 -0.047913788715063736
leaf_weight=3.5123440995812416 0.83839625958353303 0.91343318112194527 0.7586512565612793
leaf_count=34 24 14 18
internal_value=2.44105e-05 0.0313553 -0.016923
internal_weight=6.02282 2.51048 1.59705
internal_count=90 56 42
is_linear=0
shrinkage=0.1


Tree=51
num_leaves=4
num_cat=0
split_feature=2 1 1
split_gain=0.343241 0.842097 0.112889
threshold=3.5000000000000004 652.10000000000014 383.80000000000007
decision_type=2 2 2
left_child=-1 2 -2
right_child=1 -3 -4
leaf_value=-0.020087203698215362 0.011482633363780789 0.10565548802788434 -0.041672368526143977
leaf_weight=3.5198792312294245 0.79538085963577054 0.90145118534564961 0.80282953567802906
leaf_count=34 26 14 16
internal_value=3.58819e-05 0.0283721 -0.0152187
internal_weight=6.01954 2.49966 1.59821
internal_count=90 56 42
is_linear=0
shrinkage=0.1


Tree=52
num_leaves=3
num_cat=0
split_feature=0 1
split_gain=0.354362 1.19353
threshold=0.23052443442071874 621.55000000000007
decision_type=2 2
left_child=-1 -2
right_child=1 -3
leaf_value=-0.046009145809648447 0.072937060590142488 -0.029309566061774747
leaf_weight=1.3080191705375908 1.9417907651513813 2.7706013433635235
leaf_count=33 33 24
internal_value=4.02868e-05 0.0128222
internal_weight=6.02041 4.71239
internal_count=90 57
is_linear=0
shrinkage=0.1


Tree=53
num_leaves=5
num_cat=0
split_feature=1 2 1 0
split_gain=0.351064 0.905196 0.771609 2.04428
threshold=928.50000000000011 1.0000000180025095e-35 621.55000000000007 0.2996288211552614
decision_type=2 2 2 2
left_child=1 -1 3 -3
right_child=-2 2 -4 -5
leaf_value=0.054869946108336981 0.035561621254481264 -0.10988541242861734 -0.11047111057565283 0.11231386094532828
leaf_weight=1.2337738918140528 1.8967530187219379 0.86992752552032493 1.1584203466773031 0.79011481441557407
leaf_count=14 17 31 12 16
internal_value=5.46711e-05 -0.0165653 -0.0478358 -0.0041273
internal_weight=5.94899 4.05224 2.81846 1.66004
internal_count=90 73 59 47
is_linear=0
shrinkage=0.1


Tree=54
num_leaves=4
num_cat=0
split_feature=2 1 2
split_gain=0.336964 0.809978 0.0969949
threshold=3.5000000000000004 652.10000000000014 4.7500000000000009
decision_type=2 2 2
left_child=-1 2 -2
right_child=1 -3 -4
leaf_value=-0.019775668783729775 0.0078678150737407047 0.10441439542082645 -0.044318633403327215
leaf_weight=3.4484595991671085 0.74278037808835529 0.88979504257440556 0.68422382138669491
leaf_count=34 24 14 18
internal_value=4.02429e-05 0.0295354 -0.0171547
internal_weight=5.76526 2.3168 1.427
internal_count=90 56 42
is_linear=0
shrinkage=0.1


Tree=55
num_leaves=3
num_cat=0
split_feature=0 1
split_gain=0.30966 1.23099
threshold=0.24143184733272935 621.55000000000007
decision_type=2 2
left_child=-1 -2
right_child=1 -3
leaf_value=0.035472360439340385 0.057837804357530866 -0.05692005119347722
leaf_weight=1.7277001142501829 1.4703027503564952 2.5661671832203865
leaf_count=36 31 23
internal_value=4.48142e-05 -0.015119
internal_weight=5.76417 4.03647
internal_count=90 54
is_linear=0
shrinkage=0.1


Tree=56
num_leaves=3
num_cat=0
split_feature=0 1
split_gain=0.340253 0.775394
threshold=0.23052443442071874 621.55000000000007
decision_type=2 2
left_child=-1 -2
right_child=1 -3
leaf_value=-0.045819486317756238 0.065049310637538257 -0.019912589370574527
leaf_weight=1.2637685732915995 1.7485903929919002 2.7850484829396009
leaf_count=33 33 24
internal_value=6.5865e-05 0.0128566
internal_weight=5.79741 4.53364
internal_count=90 57
is_linear=0
shrinkage=0.1


Tree=57
num_leaves=4
num_cat=0
split_feature=1 2 0
split_gain=0.387513 0.78547 0.68308
threshold=928.50000000000011 1.0000000180025095e-35 0.2996288211552614
decision_type=2 2 2
left_child=1 -1 -3
right_child=-2 2 -4
leaf_value=0.048990537481331267 0.036655074918016464 -0.1095277243634836 -0.0059343757956278574
leaf_weight=1.1894447561353447 1.9236256070435045 1.0892836498096587 1.5313397450372574
leaf_count=14 17 36 23
internal_value=6.76482e-05 -0.0184046 -0.0489938
internal_weight=5.73369 3.81007 2.62062
internal_count=90 73 59
is_linear=0
shrinkage=0.1


Tree=58
num_leaves=4
num_cat=0
split_feature=2 1 2
split_gain=0.324582 0.748206 0.0744475
threshold=3.5000000000000004 652.10000000000014 4.7500000000000009
decision_type=2 2 2
left_child=-1 2 -2
right_child=1 -3 -4
leaf_value=-0.019329594361542343 0.0054176058706643876 0.10146606073330565 -0.042026496802685921
leaf_weight=3.4148157555609941 0.68284013774246 0.87840980477631081 0.64141331519931555
leaf_count=34 24 14 18
internal_value=-2.40707e-05 0.0299055 -0.0175623
internal_weight=5.61748 2.20266 1.32425
internal_count=90 56 42
is_linear=0
shrinkage=0.1


Tree=59
num_leaves=4
num_cat=0
split_feature=1 2 0
split_gain=0.308304 0.692316 0.648778
threshold=928.50000000000011 1.0000000180025095e-35 0.2996288211552614
decision_type=2 2 2
left_child=1 -1 -3
right_child=-2 2 -4
leaf_value=0.046324510351536397 0.032630683838643891 -0.10874732916748342 -0.0051701012545793366
leaf_weight=1.1819788254797461 1.9093665350228546 1.0048967842012646 1.5186488330364225
leaf_count=14 17 36 23
internal_value=-1.29804e-05 -0.0168335 -0.0464154
internal_weight=5.61489 3.70552 2.52355
internal_count=90 73 59
is_linear=0
shrinkage=0.1


Tree=60
num_leaves=4
num_cat=0
split_feature=2 1 1
split_gain=0.337472 0.598895 0.0782973
threshold=3.5000000000000004 652.10000000000014 383.80000000000007
decision_type=2 2 2
left_child=-1 2 -2
right_child=1 -3 -4
leaf_value=-0.019725079528911317 0.01325217921678672 0.096337530676485955 -0.036243695858603577
leaf_weight=3.3807685961946845 0.62472910154610894 0.84711563028395165 0.65436334442347288
leaf_count=34 26 14 16
internal_value=-9.34134e-05 0.0311218 -0.0120691
internal_weight=5.50698 2.12621 1.27909
internal_count=90 56 42
is_linear=0
shrinkage=0.1


Tree=61
num_leaves=4
num_cat=0
split_feature=1 2 1
split_gain=0.326275 0.271513 0.30007
threshold=1076.8000000000004 4.2500000000000009 621.55000000000007
decision_type=2 2 2
left_child=1 -1 -3
right_child=-2 2 -4
leaf_value=0.031728801404970884 -0.042221880287236141 0.023193929389448795 -0.071572243616570608
leaf_weight=2.7919415198266506 1.3774331696331499 0.68443317990750052 0.65283320844173431
leaf_count=37 10 32 11
internal_value=-7.67987e-05 0.0139821 -0.0230695
internal_weight=5.50664 4.12921 1.33727
internal_count=90 80 43
is_linear=0
shrinkage=0.1


Tree=62
num_leaves=4
num_cat=0
split_feature=2 1 1
split_gain=0.30564 0.550455 0.0549949
threshold=3.5000000000000004 652.10000000000014 297.75000000000006
decision_type=2 2 2
left_child=-1 2 -2
right_child=1 -3 -4
leaf_value=-0.018694041308167045 0.010847059208981874 0.092763903490122826 -0.03088327699780688
leaf_weight=3.3832980692386627 0.58556832373142265 0.83738950639963139 0.6855099406093359
leaf_count=34 23 14 19
internal_value=-7.04862e-05 0.0298133 -0.0116587
internal_weight=5.49177 2.10847 1.27108
internal_count=90 56 42
is_linear=0
shrinkage=0.1


Tree=63
num_leaves=4
num_cat=0
split_feature=1 0 1
split_gain=0.28071 1.29324 0.584931
threshold=928.50000000000011 0.23052443442071874 564.20000000000016
decision_type=2 2 2
left_child=1 -1 -3
right_child=-2 2 -4
leaf_value=-0.12227565555619802 0.03107406646542012 0.061173161085961741 -0.031725138603872438
leaf_weight=0.87438077758997712 1.8962501734495161 1.4424209641292693 1.2785682035610078
leaf_count=31 17 28 14
internal_value=-5.76483e-05 -0.016477 0.0175211
internal_weight=5.49162 3.59537 2.72099
internal_count=90 73 42
is_linear=0
shrinkage=0.1


Tree=64
num_leaves=3
num_cat=0
split_feature=0 1
split_gain=0.351877 0.948867
threshold=0.24143184733272935 621.55000000000007
decision_type=2 2
left_child=-1 -2
right_child=1 -3
leaf_value=0.039186077007734632 0.052241154368508895 -0.053014705047997095
leaf_weight=1.6014667735435066 1.3072511274367573 2.4837480690330267
leaf_count=36 31 23
internal_value=-0.000116396 -0.0167193
internal_weight=5.39247 3.791
internal_count=90 54
is_linear=0
shrinkage=0.1


Tree=65
num_leaves=3
num_cat=0
split_feature=0 1
split_gain=0.280489 0.783099
threshold=0.24143184733272935 652.10000000000014
decision_type=2 2
left_child=-1 -2
right_child=1 -3
leaf_value=0.034578641272377385 0.035227028490321458 -0.056134306359346069
leaf_weight=1.6316600800491867 1.7062044348567726 2.084276232868433
leaf_count=36 33 21
internal_value=-8.74746e-05 -0.0150099
internal_weight=5.42214 3.79048
internal_count=90 54
is_linear=0
shrinkage=0.1


Tree=66
num_leaves=3
num_cat=0
split_feature=1 0
split_gain=0.336588 0.626959
threshold=928.50000000000011 0.26808836021287291
decision_type=2 2
left_child=1 -1
right_child=-2 -3
leaf_value=-0.070534949227629581 0.033203476131137333 0.01582817898295821
leaf_weight=1.3977201441302898 1.9531219545751808 2.1088416380807757
leaf_count=38 17 35
internal_value=-6.56738e-05 -0.0185963
internal_weight=5.45968 3.50656
internal_count=90 73
is_linear=0
shrinkage=0.1


Tree=67
num_leaves=3
num_cat=0
split_feature=0 1
split_gain=0.288228 0.663703
threshold=0.24143184733272935 652.10000000000014
decision_type=2 2
left_child=-1 -2
right_child=1 -3
leaf_value=0.035122910707957859 0.03178904138744406 -0.052804546369988076
leaf_weight=1.6231576339341698 1.6660908004269006 2.092062572017312
leaf_count=36 33 21
internal_value=-9.23502e-05 -0.0153019
internal_weight=5.38131 3.75815
internal_count=90 54
is_linear=0
shrinkage=0.1


Tree=68
num_leaves=4
num_cat=0
split_feature=1 2 0
split_gain=0.329691 0.590514 0.600734
threshold=928.50000000000011 1.0000000180025095e-35 0.2996288211552614
decision_type=2 2 2
left_child=1 -1 -3
right_child=-2 2 -4
leaf_value=0.041262801614981803 0.032505065635572955 -0.10955972764737279 -0.0059620441807555309
leaf_weight=1.1109768627211454 1.9745891038328407 0.93154871929436955 1.402369813993573
leaf_count=14 17 36 23
internal_value=-7.28941e-05 -0.0187463 -0.0473115
internal_weight=5.41948 3.4449 2.33392
internal_count=90 73 59
is_linear=0
shrinkage=0.1


Tree=69
num_leaves=3
num_cat=0
split_feature=0 0
split_gain=0.309624 0.550233
threshold=0.34448607803995673 0.24143184733272935
decision_type=2 2
left_child=1 -1
right_child=-2 -3
leaf_value=0.032564346797445881 0.044751493168043645 -0.042285197746389794
leaf_weight=1.6095915078185496 1.1919149188324807 2.5193923823535442
leaf_count=36 33 21
internal_value=-0.000146166 -0.0131068
internal_weight=5.3209 4.12898
internal_count=90 57
is_linear=0
shrinkage=0.1


Tree=70
num_leaves=3
num_cat=0
split_feature=1 0
split_gain=0.278218 0.57081
threshold=928.50000000000011 0.26808836021287291
decision_type=2 2
left_child=1 -1
right_child=-2 -3
leaf_value=-0.069289681089695188 0.02981598915039041 0.015284761901227429
leaf_weight=1.3055567205883565 1.9603299684822557 2.0527679659426212
leaf_count=38 17 35
internal_value=-0.000119647 -0.0175938
internal_weight=5.31865 3.35832
internal_count=90 73
is_linear=0
shrinkage=0.1


Tree=71
num_leaves=4
num_cat=0
split_feature=1 1 1
split_gain=0.285689 0.180082 0.397134
threshold=1076.8000000000004 501.50000000000006 362.95000000000005
decision_type=2 2 2
left_child=1 2 -1
right_child=-2 -3 -4
leaf_value=0.030206534401017272 -0.038574355163973062 0.033054079972477036 -0.068836990774131149
leaf_weight=0.98151817731559299 1.4131606575101612 2.1652877535670996 0.68904915219172835
leaf_count=32 10 32 16
internal_value=-0.000137926 0.0140224 -0.0106454
internal_weight=5.24902 3.83586 1.67057
internal_count=90 80 48
is_linear=0
shrinkage=0.1


Tree=72
num_leaves=4
num_cat=0
split_feature=0 0 0
split_gain=0.261842 0.616345 0.774632
threshold=0.23052443442071874 0.2996288211552614 0.34448607803995673
decision_type=2 2 2
left_child=-1 -2 -3
right_child=1 2 -4
leaf_value=-0.043574013945387458 0.056001955407537385 -0.076302978394898302 0.038228726575108396
leaf_weight=1.0965062594041226 1.7713407035917041 1.2451528981328013 1.1232512909919021
leaf_count=33 15 9 33
internal_value=-0.000123952 0.0113848 -0.0219846
internal_weight=5.23625 4.13974 2.3684
internal_count=90 57 42
is_linear=0
shrinkage=0.1


Tree=73
num_leaves=4
num_cat=0
split_feature=2 1 2
split_gain=0.294876 0.502981 0.0616662
threshold=3.5000000000000004 652.10000000000014 4.7500000000000009
decision_type=2 2 2
left_child=-1 2 -2
right_child=1 -3 -4
leaf_value=-0.018389761675485644 0.010508513548268258 0.091793508269892868 -0.036340553956746728
leaf_weight=3.2666819687001407 0.58323809830471851 0.79636520892381657 0.5421070633456111
leaf_count=34 24 14 18
internal_value=-0.000104821 0.0309774 -0.0120599
internal_weight=5.18839 1.92171 1.12535
internal_count=90 56 42
is_linear=0
shrinkage=0.1


Tree=74
num_leaves=3
num_cat=0
split_feature=0 1
split_gain=0.255867 0.698078
threshold=0.24143184733272935 652.10000000000014
decision_type=2 2
left_child=-1 -2
right_child=1 -3
leaf_value=0.033298311255758474 0.034535192719772366 -0.054217521867051199
leaf_weight=1.5910072037950156 1.5918470136821272 1.9992404058575628
leaf_count=36 33 21
internal_value=-8.51517e-05 -0.0148755
internal_weight=5.18209 3.59109
internal_count=90 54
is_linear=0
shrinkage=0.1


Tree=75
num_leaves=4
num_cat=0
split_feature=1 2 0
split_gain=0.305051 0.520978 0.531532
threshold=928.50000000000011 1.0000000180025095e-35 0.2996288211552614
decision_type=2 2 2
left_child=1 -1 -3
right_child=-2 2 -4
leaf_value=0.038368676719485378 0.031257180675513467 -0.10875645764012631 -0.0076246878131945505
leaf_weight=1.0722865648567679 1.9474986139684913 0.84681696211919222 1.3453762955032287
leaf_count=14 17 36 23
internal_value=-6.51105e-05 -0.0187511 -0.0466906
internal_weight=5.21198 3.26448 2.19219
internal_count=90 73 59
is_linear=0
shrinkage=0.1


Tree=76
num_leaves=4
num_cat=0
split_feature=2 1 1
split_gain=0.26924 0.428581 0.025558
threshold=3.5000000000000004 652.10000000000014 412.20000000000005
decision_type=2 2 2
left_child=-1 2 -2
right_child=1 -3 -4
leaf_value=-0.017536556375993342 0.0047429842108239516 0.086469433700302897 -0.025887075727508192
leaf_weight=3.2505319593474269 0.54745145374909021 0.78354849666357029 0.54223415162414312
leaf_count=34 29 14 13
internal_value=-0.000134753 0.0300617 -0.0104987
internal_weight=5.12377 1.87323 1.08969
internal_count=90 56 42
is_linear=0
shrinkage=0.1


Tree=77
num_leaves=3
num_cat=0
split_feature=1 0
split_gain=0.246125 0.484277
threshold=928.50000000000011 0.26808836021287291
decision_type=2 2
left_child=1 -1
right_child=-2 -3
leaf_value=-0.066353881041191151 0.028047459090680928 0.013727671839535114
leaf_weight=1.2300098063424232 1.9321512188762424 1.9559811069630084
leaf_count=38 17 35
internal_value=-0.00011194 -0.0171893
internal_weight=5.11814 3.18599
internal_count=90 73
is_linear=0
shrinkage=0.1


Tree=78
num_leaves=4
num_cat=0
split_feature=1 2 1
split_gain=0.281572 0.173383 0.269851
threshold=1076.8000000000004 4.2500000000000009 621.55000000000007
decision_type=2 2 2
left_child=1 -1 -3
right_child=-2 2 -4
leaf_value=0.028618095062758048 -0.038466562879827582 0.032106792786415282 -0.067046148546085066
leaf_weight=2.5684716776013379 1.3893134575337169 0.53411470865830757 0.56465802155435085
leaf_count=37 10 32 11
internal_value=-0.00012791 0.0143965 -0.0188478
internal_weight=5.05656 3.66724 1.09877
internal_count=90 80 43
is_linear=0
shrinkage=0.1


Tree=79
num_leaves=4
num_cat=0
split_feature=2 1 1
split_gain=0.256863 0.396221 0.0194402
threshold=3.5000000000000004 652.10000000000014 412.20000000000005
decision_type=2 2 2
left_child=-1 2 -2
right_child=1 -3 -4
leaf_value=-0.01701989530102822 0.0039579564429280149 0.08524750364404754 -0.023194101804382704
leaf_weight=3.2300947546027601 0.52864449983462669 0.75659896992146958 0.52612618030980229
leaf_count=34 29 14 13
internal_value=-0.000116707 0.0300256 -0.00958566
internal_weight=5.04146 1.81137 1.05477
internal_count=90 56 42
is_linear=0
shrinkage=0.1


Tree=80
num_leaves=4
num_cat=0
split_feature=1 2 1
split_gain=0.24167 0.162059 0.24709
threshold=1076.8000000000004 4.2500000000000009 621.55000000000007
decision_type=2 2 2
left_child=1 -1 -3
right_child=-2 2 -4
leaf_value=0.02713573377408119 -0.035683287543154737 0.029756491057643272 -0.065480198079259963
leaf_weight=2.5612160121090715 1.3837960846722124 0.5332306334748862 0.55698507558554411
leaf_count=37 10 32 11
internal_value=-9.57927e-05 0.0133909 -0.0188994
internal_weight=5.03523 3.65143 1.09022
internal_count=90 80 43
is_linear=0
shrinkage=0.1


Tree=81
num_leaves=4
num_cat=0
split_feature=1 2 0
split_gain=0.265254 0.471472 0.469076
threshold=928.50000000000011 1.0000000180025095e-35 0.2996288211552614
decision_type=2 2 2
left_child=1 -1 -3
right_child=-2 2 -4
leaf_value=0.036439066844762773 0.029159225337533418 -0.1082572496797552 -0.0093388781216619723
leaf_weight=1.0478081563487651 1.9168416205793617 0.76146530918777022 1.2941228742711244
leaf_count=14 17 36 23
internal_value=-8.86467e-05 -0.0181539 -0.0459819
internal_weight=5.02024 3.1034 2.05559
internal_count=90 73 59
is_linear=0
shrinkage=0.1


Tree=82
num_leaves=4
num_cat=0
split_feature=2 1 1
split_gain=0.286179 0.355355 0.015706
threshold=3.5000000000000004 652.10000000000014 412.20000000000005
decision_type=2 2 2
left_child=-1 2 -2
right_child=1 -3 -4
leaf_value=-0.01791735308461085 0.0067256672071949247 0.085790938967352889 -0.018145800588386465
leaf_weight=3.1983804302290082 0.50543360179290153 0.72755640000104893 0.51019081333652139
leaf_count=34 29 14 13
internal_value=-0.000151209 0.032446 -0.00576832
internal_weight=4.94156 1.74318 1.01562
internal_count=90 56 42
is_linear=0
shrinkage=0.1


Tree=83
num_leaves=4
num_cat=0
split_feature=0 1 0
split_gain=0.290098 0.583178 0.487654
threshold=0.23052443442071874 965.30000000000007 0.2996288211552614
decision_type=2 2 2
left_child=-1 2 -2
right_child=1 -3 -4
leaf_value=-0.047549941700004927 0.087550659079848089 -0.041203029708265594 0.00013799769375542781
leaf_weight=1.0225651171058414 1.1769586801528937 1.3405342549085615 1.3942395146004853
leaf_count=33 12 12 33
internal_value=-0.000125869 0.0122712 0.0401509
internal_weight=4.9343 3.91173 2.5712
internal_count=90 57 45
is_linear=0
shrinkage=0.1


Tree=84
num_leaves=5
num_cat=0
split_feature=1 2 1 0
split_gain=0.260188 0.397786 0.514766 1.28534
threshold=928.50000000000011 1.0000000180025095e-35 621.55000000000007 0.2996288211552614
decision_type=2 2 2 2
left_child=1 -1 3 -3
right_child=-2 2 -4 -5
leaf_value=0.032694387041810255 0.02864663015884706 -0.10921386437877645 -0.099400045381139418 0.10868588230997492
leaf_weight=1.0099992128089073 1.9194496311247347 0.52855380391702078 0.91763137839734543 0.55492507945746183
leaf_count=14 17 31 12 16
internal_value=-0.000125425 -0.0184663 -0.0442882 0.00238779
internal_weight=4.93056 3.01111 2.00111 1.08348
internal_count=90 73 59 47
is_linear=0
shrinkage=0.1


Tree=85
num_leaves=4
num_cat=0
split_feature=2 1 1
split_gain=0.280022 0.330547 0.0125976
threshold=3.5000000000000004 652.10000000000014 412.20000000000005
decision_type=2 2 2
left_child=-1 2 -2
right_child=1 -3 -4
leaf_value=-0.017604620447641519 0.0058244823268777399 0.084313541418957014 -0.017401925135590295
leaf_weight=3.151709271594882 0.46027795411646344 0.71683290787041187 0.47400530381128192
leaf_count=34 29 14 13
internal_value=-0.000127768 0.0332327 -0.00595935
internal_weight=4.80283 1.65112 0.934283
internal_count=90 56 42
is_linear=0
shrinkage=0.1


Tree=86
num_leaves=6
num_cat=0
split_feature=1 1 2 2 1
split_gain=0.241955 1.02276 0.386068 0.600343 0.0355228
threshold=1076.8000000000004 692.95000000000016 1.0000000180025095e-35 3.5000000000000004 501.50000000000006
decision_type=2 2 2 2 2
left_child=1 2 -1 -4 -5
right_child=-2 -3 3 4 -6
leaf_value=0.031287211422266002 -0.035696129984351108 0.10974174691572687 -0.12712804754326315 0.017585825206047772 -0.020556600464647537
leaf_weight=1.0067904256284244 1.3659051340073345 0.84280689619481552 0.59617917239665963 0.53134615486487746 0.45176986418664455
leaf_count=14 10 14 9 31 12
internal_value=-0.000104394 0.0140736 -0.0171047 -0.0479542 5.82922e-05
internal_weight=4.7948 3.42889 2.58609 1.5793 0.983116
internal_count=90 80 66 52 43
is_linear=0
shrinkage=0.1


Tree=87
num_leaves=4
num_cat=0
split_feature=2 1 1
split_gain=0.207555 0.249653 0.00728911
threshold=3.5000000000000004 652.10000000000014 412.20000000000005
decision_type=2 2 2
left_child=-1 2 -2
right_child=1 -3 -4
leaf_value=-0.015340231698827689 0.0034801462327327289 0.07304508673917838 -0.014189337089341579
leaf_weight=3.1036816658452153 0.46061272313818313 0.71477891504764557 0.47343415953218937
leaf_count=34 29 14 13
internal_value=-0.000108327 0.0285636 -0.00547587
internal_weight=4.75251 1.64883 0.934047
internal_count=90 56 42
is_linear=0
shrinkage=0.1


Tree=88
num_leaves=4
num_cat=0
split_feature=1 2 1
split_gain=0.205324 0.140935 0.253193
threshold=1076.8000000000004 4.2500000000000009 621.55000000000007
decision_type=2 2 2
left_child=1 -1 -3
right_child=-2 2 -4
leaf_value=0.026192364017646602 -0.032922345785376485 0.034997354309249676 -0.06624920260545071
leaf_weight=2.3975435653701429 1.3595552183687685 0.46629918226972211 0.52518648095428944
leaf_count=37 10 32 11
internal_value=-9.18929e-05 0.0130785 -0.0186326
internal_weight=4.74858 3.38903 0.991486
internal_count=90 80 43
is_linear=0
shrinkage=0.1


Tree=89
num_leaves=3
num_cat=0
split_feature=1 0
split_gain=0.234161 0.447529
threshold=928.50000000000011 0.26808836021287291
decision_type=2 2
left_child=1 -1
right_child=-2 -3
leaf_value=-0.066798547940691774 0.027329634728541663 0.014108533083392572
leaf_weight=1.1368500753305855 1.8782337531447408 1.7150721298530696
leaf_count=38 17 35
internal_value=-8.69612e-05 -0.0181431
internal_weight=4.73016 2.85192
internal_count=90 73
is_linear=0
shrinkage=0.1


Tree=90
num_leaves=4
num_cat=0
split_feature=2 1 1
split_gain=0.199842 0.238208 0.0054914
threshold=3.5000000000000004 652.10000000000014 412.20000000000005
decision_type=2 2 2
left_child=-1 2 -2
right_child=1 -3 -4
leaf_value=-0.014953838600565603 0.0027586113866923103 0.072900133194191363 -0.0128495804417052
leaf_weight=3.0847125400323421 0.44414460612460949 0.68995482940226793 0.45770941395312548
leaf_count=34 29 14 13
internal_value=-0.000104062 0.0286728 -0.00516287
internal_weight=4.67652 1.59181 0.901854
internal_count=90 56 42
is_linear=0
shrinkage=0.1


Tree=91
num_leaves=4
num_cat=0
split_feature=1 2 1
split_gain=0.2085 0.13026 0.233686
threshold=1076.8000000000004 4.2500000000000009 621.55000000000007
decision_type=2 2 2
left_child=1 -1 -3
right_child=-2 2 -4
leaf_value=0.025965248753036626 -0.033212824353672538 0.034610426498470868 -0.064500472206778695
leaf_weight=2.3662870237603788 1.3507666336372492 0.44993097870610643 0.50481169717386365
leaf_count=37 10 32 11
internal_value=-8.7725e-05 0.0133853 -0.0177936
internal_weight=4.6718 3.32103 0.954743
internal_count=90 80 43
is_linear=0
shrinkage=0.1


Tree=92
num_leaves=3
num_cat=0
split_feature=1 0
split_gain=0.21867 0.380402
threshold=928.50000000000011 0.26808836021287291
decision_type=2 2
left_child=1 -1
right_child=-2 -3
leaf_value=-0.063274529931059295 0.026452057124353636 0.012168195884075054
leaf_weight=1.1085167981218549 1.8627621540799735 1.6832144870422778
leaf_count=38 17 35
internal_value=-8.27813e-05 -0.017788
internal_weight=4.65449 2.79173
internal_count=90 73
is_linear=0
shrinkage=0.1


Tree=93
num_leaves=3
num_cat=0
split_feature=0 1
split_gain=0.214916 0.582437
threshold=0.24143184733272935 652.10000000000014
decision_type=2 2
left_child=-1 -2
right_child=1 -3
leaf_value=0.031506531202968723 0.036805762055567327 -0.050776786210046013
leaf_weight=1.4665086599998174 1.2870532101951542 1.8517374992370603
leaf_count=36 33 21
internal_value=-9.76493e-05 -0.0148638
internal_weight=4.6053 3.13879
internal_count=90 54
is_linear=0
shrinkage=0.1


Tree=94
num_leaves=4
num_cat=0
split_feature=1 2 0
split_gain=0.219667 0.352797 0.396435
threshold=928.50000000000011 1.0000000180025095e-35 0.2996288211552614
decision_type=2 2 2
left_child=1 -1 -3
right_child=-2 2 -4
leaf_value=0.030511850854998919 0.026326996010941746 -0.10726538375889264 -0.0090015691694039363
leaf_weight=0.96748864371329579 1.8730227444320915 0.64298318629153062 1.1358478344045577
leaf_count=14 17 36 23
internal_value=-7.86518e-05 -0.0180876 -0.0445204
internal_weight=4.61934 2.74632 1.77883
internal_count=90 73 59
is_linear=0
shrinkage=0.1


Tree=95
num_leaves=4
num_cat=0
split_feature=2 1 1
split_gain=0.21089 0.306593 0.031832
threshold=3.5000000000000004 826.85000000000002 501.50000000000006
decision_type=2 2 2
left_child=-1 2 -2
right_child=1 -3 -4
leaf_value=-0.015266534557128049 0.017273876826451883 0.094119429431797311 -0.01842344722170651
leaf_weight=3.0469831998925656 0.47458479693159439 0.50375071447342623 0.52739883633330464
leaf_count=34 31 10 15
internal_value=-0.000136782 0.0304796 -0.00151558
internal_weight=4.55272 1.50573 1.00198
internal_count=90 56 46
is_linear=0
shrinkage=0.1


Tree=96
num_leaves=4
num_cat=0
split_feature=1 1 1
split_gain=0.20904 0.126787 0.304914
threshold=1076.8000000000004 501.50000000000006 297.75000000000006
decision_type=2 2 2
left_child=1 2 -1
right_child=-2 -3 -4
leaf_value=0.031276256972020182 -0.03326580677549186 0.030958453541173776 -0.064208345370353623
leaf_weight=0.78774222638458036 1.3405890110880134 1.8336231652647255 0.58116811932995915
leaf_count=29 10 32 19
internal_value=-0.000111785 0.0137666 -0.00926154
internal_weight=4.54312 3.20253 1.36891
internal_count=90 80 48
is_linear=0
shrinkage=0.1


Tree=97
num_leaves=5
num_cat=0
split_feature=1 2 1 0
split_gain=0.198871 0.326464 0.43454 0.998964
threshold=928.50000000000011 1.0000000180025095e-35 621.55000000000007 0.2996288211552614
decision_type=2 2 2 2
left_child=1 -1 3 -3
right_child=-2 2 -4 -5
leaf_value=0.029221102024587442 0.025102964930088307 -0.10671723202411579 -0.094868390668222571 0.10696523305804982
leaf_weight=0.95947226369753513 1.8514334959909318 0.41596414195373632 0.84273213101550937 0.46153064165264368
leaf_count=14 17 31 12 16
internal_value=-0.00010111 -0.0175149 -0.0435823 0.00567205
internal_weight=4.53113 2.6797 1.72023 0.877495
internal_count=90 73 59 47
is_linear=0
shrinkage=0.1


Tree=98
num_leaves=3
num_cat=0
split_feature=0 0
split_gain=0.279035 0.514619
threshold=0.23052443442071874 0.2996288211552614
decision_type=2 2
left_child=-1 -2
right_child=1 -3
leaf_value=-0.049174579669282056 0.056080473473053088 -0.021157594309828588
leaf_weight=0.91823183675296594 1.5379097014665606 1.9645763640291987
leaf_count=33 15 42
internal_value=-0.000106922 0.0127569
internal_weight=4.42072 3.50249
internal_count=90 57
is_linear=0
shrinkage=0.1


Tree=99
num_leaves=4
num_cat=0
split_feature=0 1 0
split_gain=0.230491 0.480834 0.368635
threshold=0.23052443442071874 965.30000000000007 0.2996288211552614
decision_type=2 2 2
left_child=-1 2 -2
right_child=1 -3 -4
leaf_value=-0.045306472179246299 0.082816874126561565 -0.037212770786624765 0.0012351291719909447
leaf_weight=0.89806159189902235 1.0460065798833973 1.2855637380853293 1.1772338291630147
leaf_count=33 12 12 33
internal_value=-0.000101287 0.0114688 0.0396183
internal_weight=4.40687 3.5088 2.22324
internal_count=90 57 45
is_linear=0
shrinkage=0.1


end of trees

feature_importances:
Column_0=112
Column_1=103
Column_2=62

parameters:
[boosting: gbdt]
[objective: binary]
[metric: binary_logloss]
[tree_learner: serial]
[device_type: cpu]
[data_sample_strategy: bagging]
[data: ]
[valid: ]
[num_iterations: 100]
[learning_rate: 0.1]
[num_leaves: 31]
[num_threads: 0]
[seed: 0]
[deterministic: 0]
[force_col_wise: 0]
[force_row_wise: 0]
[histogram_pool_size: -1]
[max_depth: -1]
[min_data_in_leaf: 20]
[min_sum_hessian_in_leaf: 0.001]
[bagging_fraction: 1]
[pos_bagging_fraction: 1]
[neg_bagging_fraction: 1]
[bagging_freq: 0]
[bagging_seed: 3]
[bagging_by_query: 0]
[feature_fraction: 1]
[feature_fraction_bynode: 1]
[feature_fraction_seed: 2]
[extra_trees: 0]
[extra_seed: 6]
[early_stopping_round: 0]
[early_stopping_min_delta: 0]
[first_metric_only: 0]
[max_delta_step: 0]
[lambda_l1: 0]
[lambda_l2: 0]
[linear_lambda: 0]
[min_gain_to_split: 0]
[drop_rate: 0.1]
[max_drop: 50]
[skip_drop: 0.5]
[xgboost_dart_mode: 0]
[uniform_drop: 0]
[drop_seed: 4]
[top_rate: 0.2]
[other_rate: 0.1]
[min_data_per_group: 100]
[max_cat_threshold: 32]
[cat_l2: 10]
[cat_smooth: 10]
[max_cat_to_onehot: 4]
[top_k: 20]
[monotone_constraints: ]
[monotone_constraints_method: basic]
[monotone_penalty: 0]
[feature_contri: ]
[forcedsplits_filename: ]
[refit_decay_rate: 0.9]
[cegb_tradeoff: 1]
[cegb_penalty_split: 0]
[cegb_penalty_feature_lazy: ]
[cegb_penalty_feature_coupled: ]
[path_smooth: 0]
[interaction_constraints: ]
[verbosity: -1]
[saved_feature_importance_type: 0]
[use_quantized_grad: 0]
[num_grad_quant_bins: 4]
[quant_train_renew_leaf: 0]
[stochastic_rounding: 1]
[linear_tree: 0]
[max_bin: 255]
[max_bin_by_feature: ]
[min_data_in_bin: 3]
[bin_construct_sample_cnt: 200000]
[data_random_seed: 1]
[is_enable_sparse: 1]
[enable_bundle: 1]
[use_missing: 1]
[zero_as_missing: 0]
[feature_pre_filter: 1]
[pre_partition: 0]
[two_round: 0]
[header: 0]
[label_column: ]
[weight_column: ]
[group_column: ]
[ignore_column: ]
[categorical_feature: ]
[forcedbins_filename: ]
[precise_float_parser: 0]
[parser_config_file: ]
[objective_seed: 5]
[num_class: 1]
[is_unbalance: 0]
[scale_pos_weight: 1]
[sigmoid: 1]
[boost_from_average: 1]
[reg_sqrt: 0]
[alpha: 0.9]
[fair_c: 1]
[poisson_max_delta_step: 0.7]
[tweedie_variance_power: 1.5]
[lambdarank_truncation_level: 30]
[lambdarank_norm: 1]
[label_gain: ]
[lambdarank_position_bias_regularization: 0]
[eval_at: ]
[multi_error_top_k: 1]
[auc_mu_weights: ]
[num_machines: 1]
[local_listen_port: 12400]
[time_out: 120]
[machine_list_filename: ]
[machines: ]
[gpu_platform_id: -1]
[gpu_device_id: -1]
[gpu_use_dp: 0]
[num_gpu: 1]

end of parameters

pandas_categorical:null
