tree
version=v4
num_class=1
num_tree_per_iteration=1
label_index=0
max_feature_idx=2
objective=binary sigmoid:1
feature_names=Column_0 Column_1 Column_2
feature_infos=[0.047398838319135612:0.64547904154049052] [24.300000000000001:3820.3000000000002] [0:5]
tree_sizes=350 356 354 357 352 356 355 357 353 356 354 358 357 459 355 460 461 458 458 460 459 458 459 458 360 457 457 360 459 457 459 459 459 462 360 460 361 461 460 459 360 461 360 460 359 460 460 462 360 461 360 462 359 356 357 460 356 360 461 357 355 459 462 461 463 359 462 358 459 462 460 457 460 462 462 467 461 462 463 459 460 462 463 462 463 359 462 461 466 361 460 361 461 460 360 569 359 567 359 359

Tree=0
num_leaves=2
num_cat=0
split_feature=0
split_gain=58.5973
threshold=0.211380302067326
decision_type=2
left_child=-1
right_child=-2
leaf_value=-0.22469626665169573 0.13537128404620291
leaf_weight=8.2484520077705401 9.9981236457824689
leaf_count=33 40
internal_value=-0.027399
internal_weight=18.2466
internal_count=73
is_linear=0
shrinkage=1


Tree=1
num_leaves=2
num_cat=0
split_feature=0
split_gain=48.9636
threshold=0.26333008704874855
decision_type=2
left_child=-1
right_child=-2
leaf_value=-0.15411761619047107 0.17552046600007701
leaf_weight=9.639886826276781 8.4611772298812848
leaf_count=39 34
internal_value=-3.13025e-05
internal_weight=18.1011
internal_count=73
is_linear=0
shrinkage=0.1


Tree=2
num_leaves=2
num_cat=0
split_feature=0
split_gain=40.939
threshold=0.211380302067326
decision_type=2
left_child=-1
right_child=-2
leaf_value=-0.16846731150260216 0.13683376210048095
leaf_weight=7.9609685093164471 9.7977428734302503
leaf_count=33 40
internal_value=-2.82084e-05
internal_weight=17.7587
internal_count=73
is_linear=0
shrinkage=0.1


Tree=3
num_leaves=2
num_cat=0
split_feature=0
split_gain=35.0196
threshold=0.26333008704874855
decision_type=2
left_child=-1
right_child=-2
leaf_value=-0.13401550470221718 0.15154379445612909
leaf_weight=9.1566083282232302 8.0878644883632642
leaf_count=39 34
internal_value=-8.47699e-05
internal_weight=17.2445
internal_count=73
is_linear=0
shrinkage=0.1


Tree=4
num_leaves=2
num_cat=0
split_feature=0
split_gain=29.919
threshold=0.211380302067326
decision_type=2
left_child=-1
right_child=-2
leaf_value=-0.15059604362621881 0.11936415999806289
leaf_weight=7.362128600478175 9.280223995447157
leaf_count=33 40
internal_value=-5.89639e-05
internal_weight=16.6424
internal_count=73
is_linear=0
shrinkage=0.1


Tree=5
num_leaves=2
num_cat=0
split_feature=0
split_gain=25.9253
threshold=0.26333008704874855
decision_type=2
left_child=-1
right_child=-2
leaf_value=-0.11999909584585089 0.13539165465101086
leaf_weight=8.4684814810752851 7.4905613660812387
leaf_count=39 34
internal_value=-0.000128493
internal_weight=15.959
internal_count=73
is_linear=0
shrinkage=0.1


Tree=6
num_leaves=2
num_cat=0
split_feature=0
split_gain=22.5073
threshold=0.211380302067326
decision_type=2
left_child=-1
right_child=-2
leaf_value=-0.13860101248528159 0.10645234660892307
leaf_weight=6.6310115754604348 8.6206420361995679
leaf_count=33 40
internal_value=-9.03079e-05
internal_weight=15.2517
internal_count=73
is_linear=0
shrinkage=0.1


Tree=7
num_leaves=2
num_cat=0
split_feature=0
split_gain=19.6225
threshold=0.26333008704874855
decision_type=2
left_child=-1
right_child=-2
leaf_value=-0.10941060082210892 0.12357791317163946
leaf_weight=7.7095679193735123 6.8059156239032745
leaf_count=39 34
internal_value=-0.000168621
internal_weight=14.5155
internal_count=73
is_linear=0
shrinkage=0.1


Tree=8
num_leaves=2
num_cat=0
split_feature=0
split_gain=17.2753
threshold=0.211380302067326
decision_type=2
left_child=-1
right_child=-2
leaf_value=-0.13012232353146388 0.096228437222703231
leaf_weight=5.870821014046669 7.921170562505722
leaf_count=33 40
internal_value=-0.000122028
internal_weight=13.792
internal_count=73
is_linear=0
shrinkage=0.1


Tree=9
num_leaves=2
num_cat=0
split_feature=0
split_gain=15.0722
threshold=0.26333008704874855
decision_type=2
left_child=-1
right_child=-2
leaf_value=-0.1008743394271283 0.11435888264383745
leaf_weight=6.9563009887933731 6.1123712658882141
leaf_count=39 34
internal_value=-0.000207237
internal_weight=13.0687
internal_count=73
is_linear=0
shrinkage=0.1


Tree=10
num_leaves=2
num_cat=0
split_feature=0
split_gain=13.4574
threshold=0.211380302067326
decision_type=2
left_child=-1
right_child=-2
leaf_value=-0.123909355305485 0.087693993972828441
leaf_weight=5.1389417946338654 7.2394490540027618
leaf_count=33 40
internal_value=-0.00015404
internal_weight=12.3784
internal_count=73
is_linear=0
shrinkage=0.1


Tree=11
num_leaves=2
num_cat=0
split_feature=0
split_gain=11.6912
threshold=0.26333008704874855
decision_type=2
left_child=-1
right_child=-2
leaf_value=-0.093606118996197002 0.10676033092116061
leaf_weight=6.249824121594429 5.4529196918010712
leaf_count=39 34
internal_value=-0.000244923
internal_weight=11.7027
internal_count=73
is_linear=0
shrinkage=0.1


Tree=12
num_leaves=2
num_cat=0
split_feature=0
split_gain=10.6049
threshold=0.211380302067326
decision_type=2
left_child=-1
right_child=-2
leaf_value=-0.11923544364971649 0.080279047486274929
leaf_weight=4.4648349434137344 6.6057877838611603
leaf_count=33 40
internal_value=-0.000186098
internal_weight=11.0706
internal_count=73
is_linear=0
shrinkage=0.1


Tree=13
num_leaves=3
num_cat=0
split_feature=0 0
split_gain=9.47299 1.23638
threshold=0.31777873230402093 0.16717380275787128
decision_type=2 2
left_child=1 -1
right_child=-2 -3
leaf_value=-0.117073350459065 0.12081750003892039 -0.029542689646879602
leaf_weight=3.3633072450757027 3.9932543635368347 3.1021543890237808
leaf_count=27 28 18
internal_value=-0.000281547 -0.0750758
internal_weight=10.4587 6.46546
internal_count=73 45
is_linear=0
shrinkage=0.1


Tree=14
num_leaves=2
num_cat=0
split_feature=0
split_gain=8.27743
threshold=0.211380302067326
decision_type=2
left_child=-1
right_child=-2
leaf_value=-0.1154530821808205 0.072504581537966087
leaf_weight=3.8223590925335884 6.0539388954639435
leaf_count=33 40
internal_value=-0.000239445
internal_weight=9.8763
internal_count=73
is_linear=0
shrinkage=0.1


Tree=15
num_leaves=3
num_cat=0
split_feature=0 0
split_gain=7.73007 1.27519
threshold=0.31777873230402093 0.20319789739462371
decision_type=2 2
left_child=1 -1
right_child=-2 -3
leaf_value=-0.11366243599346504 0.11715812766371365 -0.019817555552418577
leaf_weight=3.1708165034651756 3.5001214146614075 2.6648456677794456
leaf_count=30 28 15
internal_value=-0.00033696 -0.0708083
internal_weight=9.33578 5.83566
internal_count=73 45
is_linear=0
shrinkage=0.1


Tree=16
num_leaves=3
num_cat=0
split_feature=0 0
split_gain=6.77332 1.24055
threshold=0.31777873230402093 0.20319789739462371
decision_type=2 2
left_child=1 -1
right_child=-2 -3
leaf_value=-0.11219474708791002 0.11526120442174853 -0.017784112314568262
leaf_weight=2.9046772420406342 3.2164775729179382 2.6721801906824112
leaf_count=30 28 15
internal_value=-0.000304413 -0.0669574
internal_weight=8.79334 5.57686
internal_count=73 45
is_linear=0
shrinkage=0.1


Tree=17
num_leaves=3
num_cat=0
split_feature=0 0
split_gain=5.94215 1.56163
threshold=0.31777873230402093 0.211380302067326
decision_type=2 2
left_child=1 -1
right_child=-2 -3
leaf_value=-0.11126488138871077 0.11359976595790407 -0.0022991433119967683
leaf_weight=2.984413169324398 2.9507651329040527 2.3515360057353973
leaf_count=33 28 12
internal_value=-0.000272806 -0.063244
internal_weight=8.28671 5.33595
internal_count=73 45
is_linear=0
shrinkage=0.1


Tree=18
num_leaves=3
num_cat=0
split_feature=0 0
split_gain=5.2318 1.47386
threshold=0.31777873230402093 0.211380302067326
decision_type=2 2
left_child=1 -1
right_child=-2 -3
leaf_value=-0.11008046416683928 0.11213936299261074 -0.0020679409991226686
leaf_weight=2.7279740944504738 2.702947586774826 2.3529179692268372
leaf_count=33 28 12
internal_value=-0.000264077 -0.0600608
internal_weight=7.78384 5.08089
internal_count=73 45
is_linear=0
shrinkage=0.1


Tree=19
num_leaves=3
num_cat=0
split_feature=0 0
split_gain=4.61025 1.39011
threshold=0.31777873230402093 0.211380302067326
decision_type=2 2
left_child=1 -1
right_child=-2 -3
leaf_value=-0.10903112372161093 0.11085161822006927 -0.0018601115734633786
leaf_weight=2.4909121915698051 2.4726817607879639 2.3541581332683563
leaf_count=33 28 12
internal_value=-0.000254884 -0.0569581
internal_weight=7.31775 4.84507
internal_count=73 45
is_linear=0
shrinkage=0.1


Tree=20
num_leaves=3
num_cat=0
split_feature=0 0
split_gain=4.06561 1.30994
threshold=0.31777873230402093 0.211380302067326
decision_type=2 2
left_child=1 -1
right_child=-2 -3
leaf_value=-0.10809939346117992 0.1097129700041623 -0.0016732658871201082
leaf_weight=2.2723025232553482 2.2594050168991089 2.3552712500095367
leaf_count=33 28 12
internal_value=-0.000245316 -0.0539323
internal_weight=6.88698 4.62757
internal_count=73 45
is_linear=0
shrinkage=0.1


Tree=21
num_leaves=3
num_cat=0
split_feature=0 2
split_gain=3.48499 0.0278631
threshold=0.211380302067326 3.5000000000000004
decision_type=2 2
left_child=-1 -2
right_child=1 -3
leaf_value=-0.1072704636801223 0.058021566418363306 0.042137149008549757
leaf_weight=2.0711398646235466 2.1690269410610199 2.2496472299098969
leaf_count=33 18 22
internal_value=-0.000235457 0.0499344
internal_weight=6.48981 4.41867
internal_count=73 40
is_linear=0
shrinkage=0.1


Tree=22
num_leaves=3
num_cat=0
split_feature=0 0
split_gain=3.43215 1.03959
threshold=0.31777873230402093 0.211380302067326
decision_type=2 2
left_child=1 -1
right_child=-2 -3
leaf_value=-0.10653170606330059 0.10828865244811431 -0.0066378653981814589
leaf_weight=1.8863763324916361 1.9790337681770322 2.3268621563911438
leaf_count=33 28 12
internal_value=-0.00033871 -0.0513629
internal_weight=6.19227 4.21324
internal_count=73 45
is_linear=0
shrinkage=0.1


Tree=23
num_leaves=3
num_cat=0
split_feature=0 2
split_gain=2.70742 0.0271754
threshold=0.211380302067326 3.5000000000000004
decision_type=2 2
left_child=-1 -2
right_child=1 -3
leaf_value=-0.10587228020855835 0.05172534240443194 0.035510740179441738
leaf_weight=1.7169518843293188 2.0408734381198883 2.0943135023117065
leaf_count=33 18 22
internal_value=-0.000314776 0.0435133
internal_weight=5.85214 4.13519
internal_count=73 40
is_linear=0
shrinkage=0.1


Tree=24
num_leaves=2
num_cat=0
split_feature=0
split_gain=2.43983
threshold=0.26333008704874855
decision_type=2
left_child=-1
right_child=-2
leaf_value=-0.060701751323150858 0.071782809685202786
leaf_weight=3.0543981641530991 2.5509902983903885
leaf_count=39 34
internal_value=-0.000408547
internal_weight=5.60539
internal_count=73
is_linear=0
shrinkage=0.1


Tree=25
num_leaves=3
num_cat=0
split_feature=0 2
split_gain=2.23216 0.0329575
threshold=0.211380302067326 3.5000000000000004
decision_type=2 2
left_child=-1 -2
right_child=1 -3
leaf_value=-0.10497199005317626 0.048541673594734283 0.030165415394143236
leaf_weight=1.4785533696413038 1.940684512257576 1.9633650779724121
leaf_count=33 18 22
internal_value=-0.000330118 0.0393002
internal_weight=5.3826 3.90405
internal_count=73 40
is_linear=0
shrinkage=0.1


Tree=26
num_leaves=3
num_cat=0
split_feature=0 2
split_gain=1.96602 0.0275835
threshold=0.211380302067326 3.5000000000000004
decision_type=2 2
left_child=-1 -2
right_child=1 -3
leaf_value=-0.1044769054227698 0.044661925154118841 0.027683990289784167
leaf_weight=1.3438665792345998 1.9005260169506073 1.9273786246776581
leaf_count=33 18 22
internal_value=-0.000418491 0.0361134
internal_weight=5.17177 3.8279
internal_count=73 40
is_linear=0
shrinkage=0.1


Tree=27
num_leaves=2
num_cat=0
split_feature=0
split_gain=1.81531
threshold=0.26333008704874855
decision_type=2
left_child=-1
right_child=-2
leaf_value=-0.055729006801473337 0.065510895686926598
leaf_weight=2.7108805179595947 2.2683683186769485
leaf_count=39 34
internal_value=-0.000496428
internal_weight=4.97925
internal_count=73
is_linear=0
shrinkage=0.1


Tree=28
num_leaves=3
num_cat=0
split_feature=1 0
split_gain=1.70114 2.01053
threshold=761.75000000000011 0.26333008704874855
decision_type=2 2
left_child=1 -1
right_child=-2 -3
leaf_value=-0.10785485341274569 0.094109729057077346 0.045657371862267739
leaf_weight=1.871753662824631 1.3634865023195741 1.5677102282643316
leaf_count=29 20 24
internal_value=-0.000412838 -0.0378839
internal_weight=4.80295 3.43946
internal_count=73 53
is_linear=0
shrinkage=0.1


Tree=29
num_leaves=3
num_cat=0
split_feature=0 2
split_gain=1.5394 0.0495266
threshold=0.211380302067326 3.5000000000000004
decision_type=2 2
left_child=-1 -2
right_child=1 -3
leaf_value=-0.10364637632157325 0.043468899711700086 0.019809776712449104
leaf_weight=1.1018280647695062 1.7799141481518745 1.7593766897916794
leaf_count=33 18 22
internal_value=-0.000425914 0.031708
internal_weight=4.64112 3.53929
internal_count=73 40
is_linear=0
shrinkage=0.1


Tree=30
num_leaves=3
num_cat=0
split_feature=1 0
split_gain=1.46349 1.65854
threshold=761.75000000000011 0.26333008704874855
decision_type=2 2
left_child=1 -1
right_child=-2 -3
leaf_value=-0.10368138221902939 0.08908105065031581 0.040932310936638017
leaf_weight=1.7173939384520056 1.2968293800950048 1.4734897054731844
leaf_count=29 20 24
internal_value=-0.000495913 -0.0369015
internal_weight=4.48771 3.19088
internal_count=73 53
is_linear=0
shrinkage=0.1


Tree=31
num_leaves=3
num_cat=0
split_feature=1 0
split_gain=1.21563 1.40406
threshold=761.75000000000011 0.26333008704874855
decision_type=2 2
left_child=1 -1
right_child=-2 -3
leaf_value=-0.09734376815180143 0.081546681628507159 0.038206313980658053
leaf_weight=1.649887125939131 1.2761367484927175 1.4234528876841066
leaf_count=29 20 24
internal_value=-0.000495835 -0.0345622
internal_weight=4.34948 3.07334
internal_count=73 53
is_linear=0
shrinkage=0.1


Tree=32
num_leaves=3
num_cat=0
split_feature=1 0
split_gain=1.00703 1.18693
threshold=761.75000000000011 0.26333008704874855
decision_type=2 2
left_child=1 -1
right_child=-2 -3
leaf_value=-0.091272340007476249 0.074416447536034019 0.035583081628593201
leaf_weight=1.587028790265322 1.2595010958611963 1.378003381192684
leaf_count=29 20 24
internal_value=-0.000494878 -0.0323161
internal_weight=4.22453 2.96503
internal_count=73 53
is_linear=0
shrinkage=0.1


Tree=33
num_leaves=3
num_cat=0
split_feature=1 0
split_gain=0.832261 1.00207
threshold=761.75000000000011 0.26333008704874855
decision_type=2 2
left_child=1 -1
right_child=-2 -3
leaf_value=-0.085477534636109936 0.067723644554301854 0.033068170446363544
leaf_weight=1.5282935816794636 1.2463165968656538 1.3367520235478876
leaf_count=29 20 24
internal_value=-0.000492713 -0.0301673
internal_weight=4.11136 2.86505
internal_count=73 53
is_linear=0
shrinkage=0.1


Tree=34
num_leaves=2
num_cat=0
split_feature=0
split_gain=0.690366
threshold=0.26333008704874855
decision_type=2
left_child=-1
right_child=-2
leaf_value=-0.035990186613813722 0.048021176719814575
leaf_weight=2.3147199433296919 1.6939819417893884
leaf_count=39 34
internal_value=-0.000488985
internal_weight=4.0087
internal_count=73
is_linear=0
shrinkage=0.1


Tree=35
num_leaves=3
num_cat=0
split_feature=1 1
split_gain=0.721689 0.943672
threshold=761.75000000000011 308.30000000000001
decision_type=2 2
left_child=1 -1
right_child=-2 -3
leaf_value=0.040015055267926578 0.063690161407242193 -0.07976364739368369
leaf_weight=1.1378499381244189 1.2114896737039087 1.5588920451700685
leaf_count=21 20 32
internal_value=-0.00042265 -0.0292248
internal_weight=3.90823 2.69674
internal_count=73 53
is_linear=0
shrinkage=0.1


Tree=36
num_leaves=2
num_cat=0
split_feature=0
split_gain=0.611951
threshold=0.26333008704874855
decision_type=2
left_child=-1
right_child=-2
leaf_value=-0.033858996419264466 0.046139030915321691
leaf_weight=2.2822006680071358 1.6457928102463482
leaf_count=39 34
internal_value=-0.000340565
internal_weight=3.92799
internal_count=73
is_linear=0
shrinkage=0.1


Tree=37
num_leaves=3
num_cat=0
split_feature=1 2
split_gain=0.620632 0.874868
threshold=859.55000000000007 4.7500000000000009
decision_type=2 2
left_child=1 -1
right_child=-2 -3
leaf_value=0.017937393825337992 0.064160794436574242 -0.09857601791145304
leaf_weight=1.7323685698211198 1.0751630682498214 1.0262082144618034
leaf_count=33 17 23
internal_value=-0.000287454 -0.0254063
internal_weight=3.83374 2.75858
internal_count=73 56
is_linear=0
shrinkage=0.1


Tree=38
num_leaves=3
num_cat=0
split_feature=0 2
split_gain=1.55683 0.54657
threshold=0.31777873230402093 3.5000000000000004
decision_type=2 2
left_child=1 -1
right_child=-2 -3
leaf_value=0.0054666941879991486 0.10418194215063639 -0.082795790744814926
leaf_weight=1.3934690542519097 1.0416225902736185 1.413092358969152
leaf_count=14 28 31
internal_value=-0.000224045 -0.0389731
internal_weight=3.84818 2.80656
internal_count=73 45
is_linear=0
shrinkage=0.1


Tree=39
num_leaves=3
num_cat=0
split_feature=1 1
split_gain=0.539474 0.879502
threshold=859.55000000000007 308.30000000000001
decision_type=2 2
left_child=1 -1
right_child=-2 -3
leaf_value=0.04565749880420706 0.060601013078728498 -0.071021299063118409
leaf_weight=1.0838352534919984 1.0519858226180074 1.5993219930678604
leaf_count=21 17 35
internal_value=-9.35204e-05 -0.02389
internal_weight=3.73514 2.68316
internal_count=73 56
is_linear=0
shrinkage=0.1


Tree=40
num_leaves=2
num_cat=0
split_feature=0
split_gain=0.492282
threshold=0.26333008704874855
decision_type=2
left_child=-1
right_child=-2
leaf_value=-0.030458976003091061 0.043020274761589067
leaf_weight=2.203369397670031 1.5554062724113462
leaf_count=39 34
internal_value=-5.27753e-05
internal_weight=3.75878
internal_count=73
is_linear=0
shrinkage=0.1


Tree=41
num_leaves=3
num_cat=0
split_feature=1 1
split_gain=0.476054 0.799843
threshold=761.75000000000011 308.30000000000001
decision_type=2 2
left_child=1 -1
right_child=-2 -3
leaf_value=0.04242510331879893 0.053884529538442895 -0.071357473637053109
leaf_weight=1.0575623381882913 1.1331514474004505 1.4857582757249472
leaf_count=21 20 32
internal_value=-2.54137e-05 -0.0240445
internal_weight=3.67647 2.54332
internal_count=73 53
is_linear=0
shrinkage=0.1


Tree=42
num_leaves=2
num_cat=0
split_feature=0
split_gain=0.445846
threshold=0.26333008704874855
decision_type=2
left_child=-1
right_child=-2
leaf_value=-0.028994298539183568 0.041541835660912976
leaf_weight=2.1794684128835802 1.5218246318399904
leaf_count=39 34
internal_value=7.35714e-06
internal_weight=3.70129
internal_count=73
is_linear=0
shrinkage=0.1


Tree=43
num_leaves=3
num_cat=0
split_feature=1 2
split_gain=0.410616 0.879941
threshold=761.75000000000011 4.7500000000000009
decision_type=2 2
left_child=1 -1
right_child=-2 -3
leaf_value=0.024154971783707766 0.05054734627141421 -0.09772860568404329
leaf_weight=1.5505942748859531 1.1141477562487123 0.95846350956708182
leaf_count=31 20 22
internal_value=2.82819e-05 -0.0224047
internal_weight=3.62321 2.50906
internal_count=73 53
is_linear=0
shrinkage=0.1


Tree=44
num_leaves=2
num_cat=0
split_feature=0
split_gain=0.40455
threshold=0.26333008704874855
decision_type=2
left_child=-1
right_child=-2
leaf_value=-0.027657090694026359 0.040152758453986089
leaf_weight=2.1525937244296078 1.4879615064710376
leaf_count=39 34
internal_value=5.80349e-05
internal_weight=3.64056
internal_count=73
is_linear=0
shrinkage=0.1


Tree=45
num_leaves=3
num_cat=0
split_feature=1 1
split_gain=0.35985 0.712707
threshold=859.55000000000007 308.30000000000001
decision_type=2 2
left_child=1 -1
right_child=-2 -3
leaf_value=0.045162791280983772 0.050706524710185802 -0.062681048353525864
leaf_weight=1.0164889711886651 1.0072455666959284 1.5430470081046221
leaf_count=21 17 35
internal_value=7.33427e-05 -0.0198522
internal_weight=3.56678 2.55954
internal_count=73 56
is_linear=0
shrinkage=0.1


Tree=46
num_leaves=3
num_cat=0
split_feature=0 2
split_gain=1.28964 0.561853
threshold=0.31777873230402093 3.5000000000000004
decision_type=2 2
left_child=1 -1
right_child=-2 -3
leaf_value=0.010269869766444039 0.10389034957777915 -0.081067864173227103
leaf_weight=1.3742440361529593 0.89781148172914971 1.3207232262939215
leaf_count=14 28 31
internal_value=8.88017e-05 -0.034492
internal_weight=3.59278 2.69497
internal_count=73 45
is_linear=0
shrinkage=0.1


Tree=47
num_leaves=3
num_cat=0
split_feature=1 2
split_gain=0.322114 0.706915
threshold=761.75000000000011 4.7500000000000009
decision_type=2 2
left_child=1 -1
right_child=-2 -3
leaf_value=0.023204452475407693 0.045639709892176708 -0.087572020027114575
leaf_weight=1.4747555702924735 1.0786267276853321 0.94532713387161482
leaf_count=31 20 22
internal_value=0.000190041 -0.0200668
internal_weight=3.49871 2.42008
internal_count=73 53
is_linear=0
shrinkage=0.1


Tree=48
num_leaves=2
num_cat=0
split_feature=0
split_gain=0.338434
threshold=0.26333008704874855
decision_type=2
left_child=-1
right_child=-2
leaf_value=-0.025350354777028294 0.037844886315223043
leaf_weight=2.0960990851745014 1.4225590908899901
leaf_count=39 34
internal_value=0.000198863
internal_weight=3.51866
internal_count=73
is_linear=0
shrinkage=0.1


Tree=49
num_leaves=3
num_cat=0
split_feature=1 1
split_gain=0.330735 0.722861
threshold=308.30000000000001 761.75000000000011
decision_type=2 2
left_child=-1 -2
right_child=1 -3
leaf_value=0.049417669284062028 -0.066291364497219077 0.042851870940394034
leaf_weight=0.97844501771032844 1.4082488687708976 1.0662933634594081
leaf_count=21 32 20
internal_value=0.000199942 -0.019261
internal_weight=3.45299 2.47454
internal_count=73 52
is_linear=0
shrinkage=0.1


Tree=50
num_leaves=2
num_cat=0
split_feature=0
split_gain=0.313154
threshold=0.26333008704874855
decision_type=2
left_child=-1
right_child=-2
leaf_value=-0.024417305678547736 0.036748578961467569
leaf_weight=2.0794231910258536 1.4009498720988629
leaf_count=39 34
internal_value=0.000203715
internal_weight=3.48037
internal_count=73
is_linear=0
shrinkage=0.1


Tree=51
num_leaves=3
num_cat=0
split_feature=1 1
split_gain=0.275688 0.618863
threshold=308.30000000000001 761.75000000000011
decision_type=2 2
left_child=-1 -2
right_child=1 -3
leaf_value=0.045642291273124191 -0.061098528978426964 0.040282805509905248
leaf_weight=0.96010449714958701 1.4017548989504578 1.0554931508377192
leaf_count=21 32 20
internal_value=0.000203208 -0.0175509
internal_weight=3.41735 2.45725
internal_count=73 52
is_linear=0
shrinkage=0.1


Tree=52
num_leaves=2
num_cat=0
split_feature=0
split_gain=0.291526
threshold=0.26333008704874855
decision_type=2
left_child=-1
right_child=-2
leaf_value=-0.023598800913684981 0.03575814651103363
leaf_weight=2.0634710420854394 1.3813460264354942
leaf_count=39 34
internal_value=0.000202894
internal_weight=3.44482
internal_count=73
is_linear=0
shrinkage=0.1


Tree=53
num_leaves=2
num_cat=0
split_feature=2
split_gain=0.271366
threshold=4.2500000000000009
decision_type=2
left_child=-1
right_child=-2
leaf_value=0.025554276981225976 -0.031426748943484288
leaf_weight=1.878443656489253 1.5057457508519292
leaf_count=39 34
internal_value=0.0002014
internal_weight=3.38419
internal_count=73
is_linear=0
shrinkage=0.1


Tree=54
num_leaves=2
num_cat=0
split_feature=0
split_gain=0.2506
threshold=0.26333008704874855
decision_type=2
left_child=-1
right_child=-2
leaf_value=-0.021851317153162835 0.033708502892411361
leaf_weight=2.0467626331374054 1.3454874446615575
leaf_count=39 34
internal_value=0.00018569
internal_weight=3.39225
internal_count=73
is_linear=0
shrinkage=0.1


Tree=55
num_leaves=3
num_cat=0
split_feature=1 1
split_gain=0.250426 0.580314
threshold=308.30000000000001 761.75000000000011
decision_type=2 2
left_child=-1 -2
right_child=1 -3
leaf_value=0.044282065021194909 -0.059575067995741277 0.039567905245488234
leaf_weight=0.92914194241166148 1.369571822229773 1.0377330323681233
leaf_count=21 32 20
internal_value=0.000183702 -0.0168368
internal_weight=3.33645 2.4073
internal_count=73 52
is_linear=0
shrinkage=0.1


Tree=56
num_leaves=2
num_cat=0
split_feature=2
split_gain=0.250997
threshold=4.2500000000000009
decision_type=2
left_child=-1
right_child=-2
leaf_value=0.024738140936461473 -0.03019908846771634
leaf_weight=1.860689289867878 1.5037400699220598
leaf_count=39 34
internal_value=0.00018381
internal_weight=3.36443
internal_count=73
is_linear=0
shrinkage=0.1


Tree=57
num_leaves=2
num_cat=0
split_feature=0
split_gain=0.245701
threshold=0.26333008704874855
decision_type=2
left_child=-1
right_child=-2
leaf_value=-0.021708564184690891 0.033468195328659293
leaf_weight=2.0353612932376568 1.3372814413160083
leaf_count=39 34
internal_value=0.000169489
internal_weight=3.37264
internal_count=73
is_linear=0
shrinkage=0.1


Tree=58
num_leaves=3
num_cat=0
split_feature=1 1
split_gain=0.219891 0.506284
threshold=308.30000000000001 761.75000000000011
decision_type=2 2
left_child=-1 -2
right_child=1 -3
leaf_value=0.041873277429181441 -0.055588958906400178 0.037143867584981664
leaf_weight=0.91541832406073842 1.3695224025286736 1.0326863387599585
leaf_count=21 32 20
internal_value=0.000168556 -0.015724
internal_weight=3.31763 2.40221
internal_count=73 52
is_linear=0
shrinkage=0.1


Tree=59
num_leaves=2
num_cat=0
split_feature=0
split_gain=0.232665
threshold=0.26333008704874855
decision_type=2
left_child=-1
right_child=-2
leaf_value=-0.0211687972703552 0.032764162936646739
leaf_weight=2.0218490269035105 1.3234545392915604
leaf_count=39 34
internal_value=0.000167927
internal_weight=3.3453
internal_count=73
is_linear=0
shrinkage=0.1


Tree=60
num_leaves=2
num_cat=0
split_feature=2
split_gain=0.243712
threshold=4.2500000000000009
decision_type=2
left_child=-1
right_child=-2
leaf_value=0.02468592143009905 -0.0300270953351226
leaf_weight=1.816662697121501 1.4752700966782868
leaf_count=39 34
internal_value=0.000166442
internal_weight=3.29193
internal_count=73
is_linear=0
shrinkage=0.1


Tree=61
num_leaves=3
num_cat=0
split_feature=1 0
split_gain=0.204492 1.2773
threshold=635.00000000000011 0.26333008704874855
decision_type=2 2
left_child=1 -1
right_child=-2 -3
leaf_value=-0.052152952881348504 -0.031661690844624064 0.10654348398908652
leaf_weight=1.1212883093394346 1.2531727813184259 0.92603508196771134
leaf_count=28 23 22
internal_value=0.000153595 0.0196278
internal_weight=3.3005 2.04732
internal_count=73 50
is_linear=0
shrinkage=0.1


Tree=62
num_leaves=3
num_cat=0
split_feature=1 1
split_gain=0.233448 0.65903
threshold=859.55000000000007 515.00000000000011
decision_type=2 2
left_child=1 -1
right_child=-2 -3
leaf_value=0.024152202869593232 0.041714418746462804 -0.088286684640139904
leaf_weight=1.4109152769669897 0.95283558312803496 0.82672594999894489
leaf_count=38 17 18
internal_value=0.000261654 -0.0173898
internal_weight=3.19048 2.23764
internal_count=73 56
is_linear=0
shrinkage=0.1


Tree=63
num_leaves=3
num_cat=0
split_feature=2 1
split_gain=0.200359 0.154896
threshold=3.5000000000000004 614.60000000000002
decision_type=2 2
left_child=-1 -2
right_child=1 -3
leaf_value=0.02631085580500378 0.0044285599032070164 -0.056530421849787585
leaf_weight=1.5400779685005546 0.90526771312579513 0.772569565102458
leaf_count=26 33 14
internal_value=0.000266047 -0.0236403
internal_weight=3.21792 1.67784
internal_count=73 47
is_linear=0
shrinkage=0.1


Tree=64
num_leaves=3
num_cat=0
split_feature=1 2
split_gain=0.200758 0.556404
threshold=859.55000000000007 4.7500000000000009
decision_type=2 2
left_child=1 -1
right_child=-2 -3
leaf_value=0.025485107605049823 0.038621963784335613 -0.075168724026538528
leaf_weight=1.3333430052734918 0.95817394275218237 0.93384759780019511
leaf_count=33 17 23
internal_value=0.000245187 -0.0159738
internal_weight=3.22536 2.26719
internal_count=73 56
is_linear=0
shrinkage=0.1


Tree=65
num_leaves=2
num_cat=0
split_feature=0
split_gain=0.190218
threshold=0.26333008704874855
decision_type=2
left_child=-1
right_child=-2
leaf_value=-0.01909452941053779 0.030511304258904422
leaf_weight=1.9829486375674608 1.2668768716976044
leaf_count=39 34
internal_value=0.000243273
internal_weight=3.24983
internal_count=73
is_linear=0
shrinkage=0.1


Tree=66
num_leaves=3
num_cat=0
split_feature=1 1
split_gain=0.175911 0.483304
threshold=859.55000000000007 515.00000000000011
decision_type=2 2
left_child=1 -1
right_child=-2 -3
leaf_value=0.021627878102688888 0.036200991057314245 -0.073667374091606772
leaf_weight=1.3832294549793012 0.95451171603053797 0.86502585606649507
leaf_count=38 17 18
internal_value=0.00023305 -0.0150374
internal_weight=3.20277 2.24826
internal_count=73 56
is_linear=0
shrinkage=0.1


Tree=67
num_leaves=2
num_cat=0
split_feature=0
split_gain=0.18442
threshold=0.26333008704874855
decision_type=2
left_child=-1
right_child=-2
leaf_value=-0.01883878524062288 0.030179556749489595
leaf_weight=1.9727082704193892 1.2563179749995468
leaf_count=39 34
internal_value=0.000232792
internal_weight=3.22903
internal_count=73
is_linear=0
shrinkage=0.1


Tree=68
num_leaves=3
num_cat=0
split_feature=1 0
split_gain=0.170593 1.09443
threshold=635.00000000000011 0.26333008704874855
decision_type=2 2
left_child=1 -1
right_child=-2 -3
leaf_value=-0.047244799438810242 -0.027909607094373803 0.10596878258563878
leaf_weight=1.073856544448063 1.2851602667942641 0.82394601963460434
leaf_count=28 23 22
internal_value=0.000223094 0.0192741
internal_weight=3.18296 1.8978
internal_count=73 50
is_linear=0
shrinkage=0.1


Tree=69
num_leaves=3
num_cat=0
split_feature=1 2
split_gain=0.187923 0.548631
threshold=761.75000000000011 4.7500000000000009
decision_type=2 2
left_child=1 -1
right_child=-2 -3
leaf_value=0.027454444894063502 0.035414042119918915 -0.076779414737067841
leaf_weight=1.1829657950438566 1.0208267169073222 0.88106062030419696
leaf_count=31 20 22
internal_value=0.000318314 -0.0170393
internal_weight=3.08485 2.06403
internal_count=73 53
is_linear=0
shrinkage=0.1


Tree=70
num_leaves=3
num_cat=0
split_feature=1 0
split_gain=0.155513 0.982636
threshold=635.00000000000011 0.26333008704874855
decision_type=2 2
left_child=1 -1
right_child=-2 -3
leaf_value=-0.043732352042855506 -0.02603646787618355 0.10559246180607439
leaf_weight=1.0440460527315738 1.3021319499239323 0.76255531236529339
leaf_count=28 23 22
internal_value=0.000308353 0.0192967
internal_weight=3.10873 1.8066
internal_count=73 50
is_linear=0
shrinkage=0.1


Tree=71
num_leaves=3
num_cat=0
split_feature=1 1
split_gain=0.242333 0.484614
threshold=308.30000000000001 761.75000000000011
decision_type=2 2
left_child=-1 -2
right_child=1 -3
leaf_value=0.04840917403722781 -0.058967396765312624 0.034446321542439783
leaf_weight=0.77956714853644404 1.2167320633307102 1.0217028437182305
leaf_count=21 32 20
internal_value=0.000392506 -0.01633
internal_weight=3.018 2.23843
internal_count=73 52
is_linear=0
shrinkage=0.1


Tree=72
num_leaves=3
num_cat=0
split_feature=1 0
split_gain=0.144266 0.889701
threshold=635.00000000000011 0.26333008704874855
decision_type=2 2
left_child=1 -1
right_child=-2 -3
leaf_value=-0.040618214956771093 -0.02458964209774895 0.10517403458899025
leaf_weight=1.0175330259371551 1.3155676638707516 0.71109644602984179
leaf_count=28 23 22
internal_value=0.000364355 0.0193555
internal_weight=3.0442 1.72863
internal_count=73 50
is_linear=0
shrinkage=0.1


Tree=73
num_leaves=3
num_cat=0
split_feature=1 1
split_gain=0.205305 0.446651
threshold=308.30000000000001 761.75000000000011
decision_type=2 2
left_child=-1 -2
right_child=1 -3
leaf_value=0.045467645260835687 -0.056819260086418522 0.033429209185932757
leaf_weight=0.75446904636919532 1.1824905378744008 1.0226499568670986
leaf_count=21 32 20
internal_value=0.000439948 -0.0149659
internal_weight=2.95961 2.20514
internal_count=73 52
is_linear=0
shrinkage=0.1


Tree=74
num_leaves=3
num_cat=0
split_feature=1 1
split_gain=0.165036 0.356772
threshold=308.30000000000001 761.75000000000011
decision_type=2 2
left_child=-1 -2
right_child=1 -3
leaf_value=0.040689625517771999 -0.050322903008990866 0.029980656776634741
leaf_weight=0.75853249384090338 1.2006172686815264 1.0260655637830494
leaf_count=21 32 20
internal_value=0.000404653 -0.0133187
internal_weight=2.98522 2.22668
internal_count=73 52
is_linear=0
shrinkage=0.1


Tree=75
num_leaves=3
num_cat=0
split_feature=2 1
split_gain=0.148687 0.0595916
threshold=3.5000000000000004 614.60000000000002
decision_type=2 2
left_child=-1 -2
right_child=1 -3
leaf_value=0.024070158173117313 -0.00038952247158987327 -0.039004826779967583
leaf_weight=1.4084416888654232 0.76830779667943716 0.83284240239299834
leaf_count=26 33 14
internal_value=0.000371236 -0.0204754
internal_weight=3.00959 1.60115
internal_count=73 47
is_linear=0
shrinkage=0.1


Tree=76
num_leaves=3
num_cat=0
split_feature=1 0
split_gain=0.127313 0.839062
threshold=635.00000000000011 0.26333008704874855
decision_type=2 2
left_child=1 -1
right_child=-2 -3
leaf_value=-0.039541974964027095 -0.022532725419616796 0.1049187480707182
leaf_weight=0.99580390425398968 1.3474099785089491 0.67432887386530638
leaf_count=28 23 22
internal_value=0.00033566 0.0187851
internal_weight=3.01754 1.67013
internal_count=73 50
is_linear=0
shrinkage=0.1


Tree=77
num_leaves=3
num_cat=0
split_feature=1 2
split_gain=0.138091 0.498163
threshold=761.75000000000011 4.7500000000000009
decision_type=2 2
left_child=1 -1
right_child=-2 -3
leaf_value=0.030761058779886715 0.029932093569539395 -0.071943533874120766
leaf_weight=1.0480894865468147 1.0291183618828652 0.85961675341241051
leaf_count=31 20 22
internal_value=0.000408653 -0.0155179
internal_weight=2.93682 1.90771
internal_count=73 53
is_linear=0
shrinkage=0.1


Tree=78
num_leaves=3
num_cat=0
split_feature=1 0
split_gain=0.111804 0.757697
threshold=635.00000000000011 0.26333008704874855
decision_type=2 2
left_child=1 -1
right_child=-2 -3
leaf_value=-0.036736538891695897 -0.020649966124994132 0.10458661449890411
leaf_weight=0.97318805847317003 1.3627961836755274 0.62175098340958357
leaf_count=28 23 22
internal_value=0.000383258 0.0183551
internal_weight=2.95774 1.59494
internal_count=73 50
is_linear=0
shrinkage=0.1


Tree=79
num_leaves=3
num_cat=0
split_feature=1 2
split_gain=0.130442 0.418608
threshold=761.75000000000011 4.7500000000000009
decision_type=2 2
left_child=1 -1
right_child=-2 -3
leaf_value=0.028187162602892731 0.028974723943960459 -0.06722670006610125
leaf_weight=1.0062698563560846 1.0301377205178139 0.84673229278996576
leaf_count=31 20 22
internal_value=0.000447023 -0.0154124
internal_weight=2.88314 1.853
internal_count=73 53
is_linear=0
shrinkage=0.1


Tree=80
num_leaves=3
num_cat=0
split_feature=1 1
split_gain=0.104943 0.383692
threshold=761.75000000000011 308.30000000000001
decision_type=2 2
left_child=1 -1
right_child=-2 -3
leaf_value=0.04410236963488201 0.025988251710901984 -0.049202829577693147
leaf_weight=0.7112039229832593 1.0334813352674244 1.1588770919479428
leaf_count=21 20 32
internal_value=0.000414704 -0.0137183
internal_weight=2.90356 1.87008
internal_count=73 53
is_linear=0
shrinkage=0.1


Tree=81
num_leaves=3
num_cat=0
split_feature=1 0
split_gain=0.104534 0.704049
threshold=635.00000000000011 0.26333008704874855
decision_type=2 2
left_child=1 -1
right_child=-2 -3
leaf_value=-0.034844091691798237 -0.019528200692968171 0.1044208339467861
leaf_weight=0.95072590955533109 1.3871342712081967 0.58722926070913672
leaf_count=28 23 22
internal_value=0.000377271 0.0183307
internal_weight=2.92509 1.53796
internal_count=73 50
is_linear=0
shrinkage=0.1


Tree=82
num_leaves=3
num_cat=0
split_feature=1 1
split_gain=0.324977 0.401172
threshold=919.80000000000007 308.30000000000001
decision_type=2 2
left_child=1 -1
right_child=-2 -3
leaf_value=0.041417513539655296 0.054790761105274199 -0.051948713994725705
leaf_weight=0.69385744817555028 0.79403151012957085 1.3666321772616354
leaf_count=21 14 38
internal_value=0.000437431 -0.0205082
internal_weight=2.85452 2.06049
internal_count=73 59
is_linear=0
shrinkage=0.1


Tree=83
num_leaves=3
num_cat=0
split_feature=1 1
split_gain=0.263015 0.322973
threshold=919.80000000000007 308.30000000000001
decision_type=2 2
left_child=1 -1
right_child=-2 -3
leaf_value=0.037001770267454159 0.049362016947763619 -0.046507335969911134
leaf_weight=0.69872467871755439 0.79326803190633643 1.3735047671943901
leaf_count=21 14 38
internal_value=0.000395503 -0.0183493
internal_weight=2.8655 2.07223
internal_count=73 59
is_linear=0
shrinkage=0.1


Tree=84
num_leaves=3
num_cat=0
split_feature=1 2
split_gain=0.212767 0.294442
threshold=919.80000000000007 4.7500000000000009
decision_type=2 2
left_child=1 -1
right_child=-2 -3
leaf_value=0.019330001070648722 0.044445465878819819 -0.055940193235283313
leaf_weight=1.0943107362836606 0.79293887550011266 0.98974113736767311
leaf_count=34 14 25
internal_value=0.000357754 -0.0164167
internal_weight=2.87699 2.08405
internal_count=73 59
is_linear=0
shrinkage=0.1


Tree=85
num_leaves=2
num_cat=0
split_feature=0
split_gain=0.11874
threshold=0.26333008704874855
decision_type=2
left_child=-1
right_child=-2
leaf_value=-0.015232683406060885 0.026746659118482605
leaf_weight=1.8176574814133348 1.0706872101873157
leaf_count=39 34
internal_value=0.000328737
internal_weight=2.88834
internal_count=73
is_linear=0
shrinkage=0.1


Tree=86
num_leaves=3
num_cat=0
split_feature=1 0
split_gain=0.112364 0.642923
threshold=635.00000000000011 0.26333008704874855
decision_type=2 2
left_child=1 -1
right_child=-2 -3
leaf_value=-0.031923414801942988 -0.020176252369016504 0.1043036151530576
leaf_weight=0.91756738792173587 1.3822746397927401 0.55659567541442811
leaf_count=28 23 22
internal_value=0.000305953 0.0195114
internal_weight=2.85644 1.47416
internal_count=73 50
is_linear=0
shrinkage=0.1


Tree=87
num_leaves=3
num_cat=0
split_feature=1 1
split_gain=0.202558 0.302413
threshold=919.80000000000007 308.30000000000001
decision_type=2 2
left_child=1 -1
right_child=-2 -3
leaf_value=0.037928702972060885 0.043268413678392431 -0.044290550388492271
leaf_weight=0.67513431515544731 0.7893415126018225 1.3259697780013082
leaf_count=21 14 38
internal_value=0.000370046 -0.0165513
internal_weight=2.79045 2.0011
internal_count=73 59
is_linear=0
shrinkage=0.1


Tree=88
num_leaves=3
num_cat=0
split_feature=1 2
split_gain=0.0991172 0.0741677
threshold=635.00000000000011 3.5000000000000004
decision_type=2 2
left_child=1 -1
right_child=-2 -3
leaf_value=0.039815271768670162 -0.018713189349756472 -0.0060957527914777092
leaf_weight=0.77256664633750938 1.3833705214783547 0.64616902719717473
leaf_count=16 23 34
internal_value=0.000333246 0.0189049
internal_weight=2.80211 1.41874
internal_count=73 50
is_linear=0
shrinkage=0.1


Tree=89
num_leaves=2
num_cat=0
split_feature=0
split_gain=0.0899233
threshold=0.26333008704874855
decision_type=2
left_child=-1
right_child=-2
leaf_value=-0.013241384814310531 0.023980653751137969
leaf_weight=1.7842457138467582 1.0201219825539736
leaf_count=39 34
internal_value=0.000298573
internal_weight=2.80437
internal_count=73
is_linear=0
shrinkage=0.1


Tree=90
num_leaves=3
num_cat=0
split_feature=1 1
split_gain=0.190012 0.25241
threshold=919.80000000000007 308.30000000000001
decision_type=2 2
left_child=1 -1
right_child=-2 -3
leaf_value=0.033588426149122212 0.041897725369113972 -0.041639069457267169
leaf_weight=0.67446128139272365 0.78634389815852035 1.316837041871622
leaf_count=21 14 38
internal_value=0.000276582 -0.0161592
internal_weight=2.77764 1.9913
internal_count=73 59
is_linear=0
shrinkage=0.1


Tree=91
num_leaves=2
num_cat=0
split_feature=0
split_gain=0.0929508
threshold=0.26333008704874855
decision_type=2
left_child=-1
right_child=-2
leaf_value=-0.013598855095219527 0.024315239064531285
leaf_weight=1.7702847882173958 1.0187320529948918
leaf_count=39 34
internal_value=0.000249861
internal_weight=2.78902
internal_count=73
is_linear=0
shrinkage=0.1


Tree=92
num_leaves=3
num_cat=0
split_feature=1 2
split_gain=0.162886 0.257509
threshold=919.80000000000007 4.7500000000000009
decision_type=2 2
left_child=1 -1
right_child=-2 -3
leaf_value=0.01989142719075964 0.038816808801241241 -0.05230138660859053
leaf_weight=1.0207939278334381 0.78367669461294998 0.95758163789287198
leaf_count=34 14 25
internal_value=0.000232446 -0.0150516
internal_weight=2.76205 1.97838
internal_count=73 59
is_linear=0
shrinkage=0.1


Tree=93
num_leaves=3
num_cat=0
split_feature=1 2
split_gain=0.131609 0.215233
threshold=919.80000000000007 3.5000000000000004
decision_type=2 2
left_child=1 -1
right_child=-2 -3
leaf_value=0.025697338535090597 0.034906037856619616 -0.041096359573113632
leaf_weight=0.82282542018219862 0.78429745696485031 1.1661788355559108
leaf_count=17 14 42
internal_value=0.000214703 -0.0134647
internal_weight=2.7733 1.989
internal_count=73 59
is_linear=0
shrinkage=0.1


Tree=94
num_leaves=2
num_cat=0
split_feature=0
split_gain=0.113644
threshold=0.26333008704874855
decision_type=2
left_child=-1
right_child=-2
leaf_value=-0.015247167073185255 0.026642585663787011
leaf_weight=1.7568005656357857 1.0257824722211806
leaf_count=39 34
internal_value=0.000195238
internal_weight=2.78258
internal_count=73
is_linear=0
shrinkage=0.1


Tree=95
num_leaves=4
num_cat=0
split_feature=1 1 1
split_gain=0.115148 0.301312 0.0912608
threshold=919.80000000000007 614.60000000000002 245.65000000000003
decision_type=2 2 2
left_child=1 2 -1
right_child=-2 -3 -4
leaf_value=0.046036609611870609 0.032659388529739895 -0.068212863830425366 -0.0073580324720977988
leaf_weight=0.54778351821005367 0.78177962079644192 0.65350752230733622 0.77014256780967116
leaf_count=15 14 12 32
internal_value=0.000183853 -0.0126944 0.0148349
internal_weight=2.75321 1.97143 1.31793
internal_count=73 59 47
is_linear=0
shrinkage=0.1


Tree=96
num_leaves=2
num_cat=0
split_feature=0
split_gain=0.118959
threshold=0.26333008704874855
decision_type=2
left_child=-1
right_child=-2
leaf_value=-0.015691916217947851 0.027291811018156826
leaf_weight=1.7449815737782048 1.0203379737213252
leaf_count=39 34
internal_value=0.00016807
internal_weight=2.76532
internal_count=73
is_linear=0
shrinkage=0.1


Tree=97
num_leaves=4
num_cat=0
split_feature=1 1 1
split_gain=0.101535 0.257435 0.0788119
threshold=919.80000000000007 614.60000000000002 245.65000000000003
decision_type=2 2 2
left_child=1 2 -1
right_child=-2 -3 -4
leaf_value=0.042491627889744171 0.03068172310803767 -0.063345432760422746 -0.0072955279700984872
leaf_weight=0.54843318718485556 0.77938849478960026 0.65137103898450721 0.75655357493087649
leaf_count=15 14 12 32
internal_value=0.000159358 -0.0120004 0.013628
internal_weight=2.73575 1.95636 1.30499
internal_count=73 59 47
is_linear=0
shrinkage=0.1


Tree=98
num_leaves=2
num_cat=0
split_feature=0
split_gain=0.122796
threshold=0.26333008704874855
decision_type=2
left_child=-1
right_child=-2
leaf_value=-0.016022931905294004 0.027784691329997654
leaf_weight=1.7336006956757049 1.0141958727035669
leaf_count=39 34
internal_value=0.000146209
internal_weight=2.7478
internal_count=73
is_linear=0
shrinkage=0.1


Tree=99
num_leaves=2
num_cat=0
split_feature=0
split_gain=0.101055
threshold=0.26333008704874855
decision_type=2
left_child=-1
right_child=-2
leaf_value=-0.014514439194676741 0.02550960411461204
leaf_weight=1.7229840259533378 0.99521880643442262
leaf_count=39 34
internal_value=0.000139611
internal_weight=2.7182
internal_count=73
is_linear=0
shrinkage=0.1


end of trees

feature_importances:
Column_0=72
Column_1=68
Column_2=23

parameters:
[boosting: gbdt]
[objective: binary]
[metric: binary_logloss]
[tree_learner: serial]
[device_type: cpu]
[data_sample_strategy: bagging]
[data: ]
[valid: ]
[num_iterations: 100]
[learning_rate: 0.1]
[num_leaves: 31]
[num_threads: 0]
[seed: 0]
[deterministic: 0]
[force_col_wise: 0]
[force_row_wise: 0]
[histogram_pool_size: -1]
[max_depth: -1]
[min_data_in_leaf: 20]
[min_sum_hessian_in_leaf: 0.001]
[bagging_fraction: 1]
[pos_bagging_fraction: 1]
[neg_bagging_fraction: 1]
[bagging_freq: 0]
[bagging_seed: 3]
[bagging_by_query: 0]
[feature_fraction: 1]
[feature_fraction_bynode: 1]
[feature_fraction_seed: 2]
[extra_trees: 0]
[extra_seed: 6]
[early_stopping_round: 0]
[early_stopping_min_delta: 0]
[first_metric_only: 0]
[max_delta_step: 0]
[lambda_l1: 0]
[lambda_l2: 0]
[linear_lambda: 0]
[min_gain_to_split: 0]
[drop_rate: 0.1]
[max_drop: 50]
[skip_drop: 0.5]
[xgboost_dart_mode: 0]
[uniform_drop: 0]
[drop_seed: 4]
[top_rate: 0.2]
[other_rate: 0.1]
[min_data_per_group: 100]
[max_cat_threshold: 32]
[cat_l2: 10]
[cat_smooth: 10]
[max_cat_to_onehot: 4]
[top_k: 20]
[monotone_constraints: ]
[monotone_constraints_method: basic]
[monotone_penalty: 0]
[feature_contri: ]
[forcedsplits_filename: ]
[refit_decay_rate: 0.9]
[cegb_tradeoff: 1]
[cegb_penalty_split: 0]
[cegb_penalty_feature_lazy: ]
[cegb_penalty_feature_coupled: ]
[path_smooth: 0]
[interaction_constraints: ]
[verbosity: -1]
[saved_feature_importance_type: 0]
[use_quantized_grad: 0]
[num_grad_quant_bins: 4]
[quant_train_renew_leaf: 0]
[stochastic_rounding: 1]
[linear_tree: 0]
[max_bin: 255]
[max_bin_by_feature: ]
[min_data_in_bin: 3]
[bin_construct_sample_cnt: 200000]
[data_random_seed: 1]
[is_enable_sparse: 1]
[enable_bundle: 1]
[use_missing: 1]
[zero_as_missing: 0]
[feature_pre_filter: 1]
[pre_partition: 0]
[two_round: 0]
[header: 0]
[label_column: ]
[weight_column: ]
[group_column: ]
[ignore_column: ]
[categorical_feature: ]
[forcedbins_filename: ]
[precise_float_parser: 0]
[parser_config_file: ]
[objective_seed: 5]
[num_class: 1]
[is_unbalance: 0]
[scale_pos_weight: 1]
[sigmoid: 1]
[boost_from_average: 1]
[reg_sqrt: 0]
[alpha: 0.9]
[fair_c: 1]
[poisson_max_delta_step: 0.7]
[tweedie_variance_power: 1.5]
[lambdarank_truncation_level: 30]
[lambdarank_norm: 1]
[label_gain: ]
[lambdarank_position_bias_regularization: 0]
[eval_at: ]
[multi_error_top_k: 1]
[auc_mu_weights: ]
[num_machines: 1]
[local_listen_port: 12400]
[time_out: 120]
[machine_list_filename: ]
[machines: ]
[gpu_platform_id: -1]
[gpu_device_id: -1]
[gpu_use_dp: 0]
[num_gpu: 1]

end of parameters

pandas_categorical:null
